\data\
ngram 1=3673
ngram 2=9106
ngram 3=10675
ngram 4=10352

\1-grams:
-4.0226617	<unk>	0
0	<s>	-1.1167054
-0.8615404	</s>	0
-3.9021957	البعيد	-0.0882636
-2.5356305	عن	-0.20162736
-3.3034635	العين	-0.0882636
-3.6845112	بعيد	-0.0882636
-3.2167943	القلب	-0.3161485
-3.4118533	الحب	-0.0882636
-3.6845112	أعمى	-0.0882636
-1.7619711	من	-0.15570715
-3.9021957	أحب	-0.0882636
-3.9021957	ولده	-0.0882636
-3.9021957	رحم	-0.0882636
-3.9021957	الأيتام	-0.0882636
-3.9021957	القلوب	-0.0882636
-3.1445768	عند	-0.11908581
-3.9021957	بعضها	-0.0882636
-3.0826735	إن	-0.08826363
-3.9021957	العيون	-0.0882636
-2.6915095	التي	-0.11562904
-1.6422518	في	-0.22558762
-3.9021957	طرفها	-0.0882636
-3.9021957	حور	-0.0882636
-3.9021957	قتلننا	-0.0882636
-3.6845112	ثم	-0.08826357
-2.4746356	لم	-0.17224924
-3.9021957	يحيين	-0.0882636
-3.9021957	قتلانا	-0.0882636
-3.9021957	يَصرَعْنَ	-0.0882636
-3.5566263	ذا	-0.08826357
-3.9021957	اللب	-0.0882636
-3.2167943	حتى	-0.08826357
-2.2070675	لا	-0.17615299
-3.9021957	حراك	-0.0882636
-2.6686797	به	-0.20252474
-3.9021957	وهن	-0.0882636
-3.9021957	أضعف	-0.0882636
-3.6845112	خلق	-0.0882636
-3.028503	الله	-0.123531416
-3.9021957	إنسانا	-0.0882636
-3.5566263	أول	-0.08826357
-3.6845112	الشجرة	-0.0882636
-3.9021957	بذرة	-0.0882636
-3.9021957	ربك	-0.0882636
-3.6845112	رب	-0.0882636
-3.9021957	قلوب	-0.0882636
-3.5566263	فإن	-0.08826357
-3.4118533	قليل	-0.08826357
-3.9021957	بالعقل	-0.0882636
-3.9021957	صالح	-0.0882636
-3.2167943	وإن	-0.12986597
-3.4118533	كثير	-0.0882636
-3.9021957	بالجهل	-0.0882636
-3.9021957	فاسد	-0.0882636
-3.9021957	تخف	-0.0882636
-2.3306572	ما	-0.13483128
-3.9021957	صنعت	-0.0882636
-3.9021957	بك	-0.0882636
-3.9021957	الأشواق	-0.0882636
-3.9021957	واشرح	-0.0882636
-3.9021957	هواك	-0.0882636
-3.9021957	فكلنا	-0.0882636
-3.9021957	عشاق	-0.0882636
-3.9021957	مرآة	-0.0882636
-3.9021957	عمياء	-0.0882636
-3.9021957	للقلب	-0.0882636
-3.9021957	رسول	-0.0882636
-3.0826735	إذا	-0.098296605
-3.9021957	أتاك	-0.0882636
-2.980346	أحد	-0.14336632
-3.9021957	الخصمين	-0.0882636
-3.4118533	وقد	-0.0882636
-3.6845112	فُقِئَتْ	-0.0882636
-3.6845112	عينه	-0.0882636
-3.3034635	فلا	-0.0882636
-3.9021957	تقض	-0.0882636
-2.741119	له	-0.12514792
-3.9021957	يأتيك	-0.0882636
-3.9021957	خصمه	-0.0882636
-3.9021957	فلعله	-0.0882636
-2.980346	قد	-0.10856684
-3.9021957	عيناه	-0.0882636
-3.9021957	تولى	-0.0882636
-3.9021957	عقداً	-0.0882636
-3.9021957	أحكمه	-0.0882636
-3.9021957	الجزاء	-0.0882636
-3.9021957	جنس	-0.0882636
-3.6845112	العمل	-0.2273531
-3.4118533	الحق	-0.0882636
-3.9021957	دولة	-0.0882636
-3.9021957	والباطل	-0.0882636
-3.6845112	جولة	-0.0882636
-3.9021957	الرجوع	-0.0882636
-2.3735561	إلى	-0.15444125
-2.8975904	خير	-0.31258765
-3.9021957	التمادي	-0.0882636
-3.9021957	الباطل	-0.0882636
-3.9021957	العاقل	-0.0882636
-3.9021957	يبطل	-0.0882636
-3.9021957	حقا	-0.0882636
-2.3849773	ولا	-0.11430097
-3.9021957	يحق	-0.0882636
-3.9021957	باطلا	-0.0882636
-3.9021957	العدل	-0.0882636
-3.9021957	أساس	-0.0882636
-3.9021957	الْمُلْك	-0.0882636
-3.9021957	بالعين	-0.0882636
-3.9021957	والسن	-0.0882636
-3.9021957	بالسن	-0.0882636
-3.6845112	صاحب	-0.08826357
-3.4118533	قوية	-0.1931134
-2.0988245	على	-0.14832602
-3.9021957	الباغي	-0.0882636
-3.9021957	تدور	-0.0882636
-3.9021957	الدوائر	-0.0882636
-3.9021957	قُضِيَ	-0.0882636
-3.9021957	الأَمرُ	-0.0882636
-3.9021957	الَّذِي	-0.0882636
-3.9021957	فِيهِ	-0.0882636
-3.9021957	تَستَفِتيَانِ	-0.0882636
-3.4118533	كما	-0.0882636
-3.9021957	تدين	-0.0882636
-3.9021957	تدان	-0.0882636
-3.9021957	يَفُلُّ	-0.0882636
-3.6845112	الحديد	-0.0882636
-2.8975904	إلا	-0.08826357
-3.9021957	عَفَّ	-0.0882636
-3.5566263	ظلم	-0.08826357
-3.9021957	العباد	-0.0882636
-3.9021957	تورعا	-0.0882636
-3.9021957	جاءته	-0.0882636
-3.9021957	ألطاف	-0.0882636
-3.9021957	الإله	-0.0882636
-3.9021957	تبرعا	-0.0882636
-2.7682245	هذه	-0.14070137
-3.9021957	بتلك	-0.0882636
-3.9021957	والبادئ	-0.0882636
-3.5566263	أظلم	-0.17587987
-2.4087622	هي	-0.124276735
-3.4118533	النفس	-0.0882636
-3.9021957	حَمَّلْتَها	-0.0882636
-3.9021957	تتحمل	-0.0882636
-3.9021957	وللدهر	-0.0882636
-3.3034635	أيام	-0.1450498
-3.9021957	تجور	-0.0882636
-3.9021957	وتَعْدِلُ	-0.0882636
-3.9021957	يغرق	-0.0882636
-3.6845112	يتعلق	-0.0882636
-3.9021957	بعود	-0.0882636
-3.9021957	قش	-0.0882636
-3.2167943	أعزب	-0.36920464
-3.9021957	دهر	-0.0882636
-3.9021957	أرمل	-0.0882636
-3.2167943	شهر	-0.16203885
-3.9021957	اعطني	-0.0882636
-3.9021957	عمرا	-0.0882636
-3.9021957	وارميني	-0.0882636
-3.9021957	بالبحر	-0.0882636
-3.9021957	ألا	-0.0882636
-2.797135	كل	-0.14588825
-2.3306572	هو	-0.12410874
-3.9021957	آت	-0.0882636
-3.6845112	قريب	-0.0882636
-3.9021957	وللأرض	-0.0882636
-3.9021957	حي	-0.0882636
-3.9021957	نصيب	-0.0882636
-3.9021957	الحصاة	-0.0882636
-3.5566263	الجبل	-0.08826357
-3.4118533	الصباح	-0.13868694
-3.9021957	رباح	-0.0882636
-3.5566263	العمر	-0.08826357
-2.7682245	واحد	-0.20779635
-3.9021957	والرب	-0.0882636
-3.9021957	المأمول	-0.0882636
-3.9021957	المأكول	-0.0882636
-3.9021957	أنفع	-0.0882636
-3.9021957	فيا	-0.0882636
-3.9021957	ليت	-0.0882636
-3.6845112	الشباب	-0.0882636
-3.9021957	يعود	-0.0882636
-3.1445768	يوما	-0.137532
-3.9021957	فأخبره	-0.0882636
-2.937	بما	-0.11046053
-3.4118533	فعل	-0.08826357
-3.9021957	المشيب	-0.0882636
-3.9021957	كلكم	-0.0882636
-3.9021957	طلب	-0.0882636
-3.9021957	صيد	-0.0882636
-3.6845112	أبعد	-0.0882636
-3.9021957	فات	-0.0882636
-3.3034635	وما	-0.0882636
-3.6845112	أقرب	-0.0882636
-3.6845112	يأتي	-0.08826357
-3.9021957	يتمنى	-0.0882636
-3.028503	المرء	-0.0882636
-3.9021957	يدركه	-0.0882636
-3.9021957	تجرى	-0.0882636
-3.6845112	الرياح	-0.0882636
-3.9021957	تشتهي	-0.0882636
-3.9021957	السفن	-0.0882636
-3.6845112	حبل	-0.0882636
-3.9021957	غاربه	-0.0882636
-3.9021957	أشبه	-0.0882636
-3.6845112	الليلة	-0.08826357
-3.9021957	بالبارحة	-0.0882636
-3.9021957	أثقل	-0.0882636
-3.9021957	جبل	-0.0882636
-3.9021957	أحذر	-0.0882636
-3.9021957	غراب	-0.0882636
-3.9021957	أحرس	-0.0882636
-3.9021957	كلب	-0.0882636
-3.9021957	أدنى	-0.0882636
-3.9021957	الوريد	-0.0882636
-3.9021957	أرخص	-0.0882636
-3.9021957	التمر	-0.0882636
-3.9021957	البصرة	-0.0882636
-3.5566263	أسرع	-0.08826357
-3.6845112	الريح	-0.0882636
-3.2167943	اللسان	-0.15528032
-3.9021957	للأسنان	-0.0882636
-3.9021957	البعد	-0.0882636
-3.9021957	جفاء	-0.0882636
-3.9021957	البياض	-0.0882636
-3.1445768	نصف	-0.3161485
-3.9021957	الحسن	-0.0882636
-3.5566263	الماء	-0.08826357
-3.9021957	أهون	-0.0882636
-3.9021957	موجود	-0.0882636
-3.9021957	وأعز	-0.0882636
-3.9021957	مفقود	-0.0882636
-3.6845112	المتكبر	-0.0882636
-3.9021957	كالواقف	-0.0882636
-3.6845112	يرى	-0.0882636
-2.937	الناس	-0.0882636
-3.9021957	صغاراً	-0.0882636
-3.9021957	ويرونه	-0.0882636
-3.9021957	صغيراً	-0.0882636
-3.9021957	أتبع	-0.0882636
-3.9021957	الظل	-0.0882636
-3.3034635	إنه	-0.1009758
-3.9021957	لأشبه	-0.0882636
-3.9021957	التمرة	-0.0882636
-3.9021957	بالتمرة	-0.0882636
-3.9021957	سارت	-0.0882636
-3.9021957	الرُّكْبانُ	-0.0882636
-3.9021957	عاد	-0.0882636
-3.6845112	الأمر	-0.0882636
-3.9021957	نصابه	-0.0882636
-3.9021957	فالوجه	-0.0882636
-3.2167943	مثل	-0.08826357
-3.9021957	الصبح	-0.0882636
-3.9021957	مبيض	-0.0882636
-3.9021957	والشعر	-0.0882636
-3.5566263	الليل	-0.17587987
-3.9021957	مسود	-0.0882636
-3.6845112	فما	-0.0882636
-3.9021957	تحمد	-0.0882636
-3.9021957	العينان	-0.0882636
-3.9021957	بشاشة	-0.0882636
-3.5566263	وجه	-0.08826357
-3.9021957	عابس	-0.0882636
-3.9021957	بذميم	-0.0882636
-3.9021957	لسان	-0.08826357
-3.9021957	خدم	-0.0882636
-3.9021957	الفؤاد	-0.0882636
-3.9021957	يمدح	-0.0882636
-3.9021957	العروس	-0.0882636
-3.9021957	أهلها	-0.0882636
-3.9021957	يرقم	-0.0882636
-3.9021957	يخلق	-0.0882636
-3.9021957	الشبه	-0.0882636
-3.5566263	أربعين	-0.08826357
-3.9021957	ينفعك	-0.0882636
-3.9021957	البازي	-0.0882636
-3.9021957	فانتف	-0.0882636
-3.6845112	ريشه	-0.2273531
-3.9021957	أفعى	-0.0882636
-3.9021957	التسلُّطُ	-0.0882636
-3.9021957	المماليك	-0.0882636
-3.9021957	دناءة	-0.0882636
-3.9021957	الظلم	-0.0882636
-2.980346	شيء	-0.18544775
-3.9021957	تعجيل	-0.0882636
-3.9021957	نقمة	-0.0882636
-3.9021957	وتبديل	-0.0882636
-3.6845112	نعمة	-0.0882636
-3.9021957	مرتعه	-0.0882636
-3.9021957	وخيم	-0.0882636
-3.9021957	إِنَّ	-0.0882636
-3.9021957	الإِنسَانَ	-0.0882636
-3.9021957	لَيَطغَى	-0.0882636
-3.6845112	بيت	-0.08826357
-3.6845112	الظالم	-0.0882636
-3.9021957	خراب	-0.0882636
-3.9021957	جزاء	-0.0882636
-3.9021957	مُجيرِ	-0.0882636
-3.9021957	أُمِّ	-0.0882636
-3.9021957	عامِرٍ	-0.0882636
-3.6845112	حرامي	-0.0882636
-3.6845112	بلا	-0.0882636
-3.9021957	بَيِّنةٍ	-0.0882636
-3.9021957	شريف	-0.0882636
-3.9021957	ضربني	-0.0882636
-3.9021957	وبكى	-0.0882636
-3.9021957	وسبقني	-0.0882636
-3.9021957	واشتكى	-0.0882636
-3.6845112	الأقارب	-0.0882636
-3.5566263	أشد	-0.08826357
-3.9021957	وقعا	-0.0882636
-3.9021957	السيف	-0.0882636
-3.9021957	غيري	-0.0882636
-3.6845112	يأكل	-0.0882636
-3.9021957	الدجاج	-0.0882636
-3.1445768	وأنا	-0.0882636
-3.9021957	أقع	-0.0882636
-3.9021957	السياج	-0.0882636
-3.6845112	كلما	-0.08826357
-3.9021957	طار	-0.0882636
-3.9021957	قص	-0.0882636
-3.9021957	جناحه	-0.0882636
-3.9021957	كمن	-0.0882636
-3.9021957	يربي	-0.0882636
-3.3034635	الذئب	-0.0882636
-3.9021957	تجن	-0.0882636
-3.9021957	يمينك	-0.0882636
-3.9021957	شمالك	-0.0882636
-3.9021957	تسقني	-0.0882636
-3.9021957	ماء	-0.0882636
-3.6845112	الحياة	-0.0882636
-3.9021957	بذلة	-0.0882636
-3.028503	بل	-0.0882636
-3.9021957	فاسقني	-0.0882636
-3.9021957	بالعز	-0.0882636
-3.9021957	كأس	-0.0882636
-3.9021957	الحنظل	-0.0882636
-3.9021957	لمن	-0.0882636
-3.9021957	تشكو	-0.0882636
-2.8614612	كان	-0.11555111
-3.9021957	خصمك	-0.0882636
-3.9021957	القاضي	-0.0882636
-3.9021957	لو	-0.0882636
-3.9021957	خُيِّرْتُ	-0.0882636
-3.9021957	لاخترت	-0.0882636
-3.9021957	مُتْخَمٌ	-0.0882636
-3.9021957	يقسو	-0.0882636
-3.9021957	جائع	-0.0882636
-3.9021957	ظَلَمَ	-0.0882636
-3.5566263	نفسه	-0.08826357
-3.5566263	فهو	-0.08826357
-3.9021957	لغيره	-0.0882636
-3.9021957	نوم	-0.0882636
-3.9021957	عبادة	-0.0882636
-3.9021957	وَظُلْمُ	-0.0882636
-3.9021957	ذوي	-0.0882636
-3.9021957	القربى	-0.0882636
-3.9021957	مرارة	-0.0882636
-3.6845112	وقع	-0.0882636
-3.9021957	الحسام	-0.0882636
-3.9021957	المهند	-0.0882636
-3.6845112	ظالم	-0.0882636
-3.9021957	سيبلى	-0.0882636
-3.9021957	بظالم	-0.0882636
-3.5566263	ومن	-0.0882636
-3.9021957	نكد	-0.0882636
-3.9021957	الدنيا	-0.0882636
-3.4118533	الحر	-0.0882636
-2.4606373	أن	-0.122961655
-3.9021957	عدوا	-0.0882636
-3.9021957	صداقته	-0.0882636
-3.6845112	بد	-0.0882636
-3.6845112	يا	-0.08826357
-2.980346	لك	-0.08826363
-2.937	يوم	-0.1476592
-3.9021957	يخشى	-0.0882636
-3.9021957	البلل	-0.0882636
-3.9021957	يصطاد	-0.0882636
-3.9021957	السمك	-0.0882636
-3.9021957	معظم	-0.0882636
-3.9021957	النار	-0.0882636
-3.9021957	مستصغر	-0.0882636
-3.9021957	الشرر	-0.0882636
-3.9021957	اترك	-0.0882636
-3.9021957	الشر	-0.0882636
-3.9021957	يتركك	-0.0882636
-3.9021957	احذر	-0.0882636
-3.4118533	الأحمق	-0.0882636
-3.9021957	واحذر	-0.0882636
-3.9021957	وُدَّهُ	-0.0882636
-3.4118533	إنما	-0.15226379
-3.9021957	كالثوب	-0.0882636
-3.9021957	الْخَلَق	-0.0882636
-3.9021957	احذروا	-0.0882636
-3.9021957	يرجى	-0.0882636
-3.9021957	خيره	-0.0882636
-3.9021957	يؤمن	-0.0882636
-3.9021957	شره	-0.0882636
-3.5566263	جاء	-0.08826357
-3.9021957	الحين	-0.0882636
-3.9021957	حارت	-0.0882636
-3.6845112	ذكرت	-0.0882636
-3.9021957	فأعد	-0.0882636
-3.9021957	العصا	-0.0882636
-3.1445768	رأيت	-0.16376157
-3.9021957	نيوب	-0.0882636
-3.6845112	الليث	-0.0882636
-3.9021957	بارزة	-0.0882636
-3.9021957	تظنن	-0.0882636
-3.9021957	يبتسم	-0.0882636
-3.9021957	كنتَ	-0.0882636
-3.9021957	رأيٍ	-0.0882636
-3.9021957	فكن	-0.0882636
-3.9021957	مشورة	-0.0882636
-3.9021957	فساد	-0.0882636
-3.3034635	الرأي	-0.0882636
-3.9021957	تترددا	-0.0882636
-3.9021957	أعدّوا	-0.0882636
-3.9021957	لكلب	-0.0882636
-3.6845112	السوء	-0.0882636
-3.6845112	كلبا	-0.0882636
-3.9021957	يعادله	-0.0882636
-3.9021957	أقلل	-0.0882636
-3.9021957	طعامك	-0.0882636
-3.9021957	تجد	-0.0882636
-3.9021957	منامك	-0.0882636
-3.6845112	الدهر	-0.0882636
-3.9021957	يومان	-0.0882636
-3.9021957	حلو	-0.0882636
-3.9021957	ومر	-0.0882636
-3.4118533	اللي	-0.0882636
-3.6845112	يخاف	-0.2273531
-3.9021957	العفريت	-0.0882636
-3.9021957	يطلع	-0.0882636
-3.9021957	الجواد	-0.0882636
-3.9021957	يعثر	-0.0882636
-3.9021957	الشفيق	-0.0882636
-3.9021957	بسوء	-0.0882636
-3.9021957	ظن	-0.0882636
-3.9021957	مولع	-0.0882636
-2.8975904	كنت	-0.12821098
-3.9021957	ريحا	-0.0882636
-3.2167943	فقد	-0.15528032
-3.9021957	لاقيت	-0.0882636
-3.9021957	إعصارا	-0.0882636
-3.9021957	وراء	-0.0882636
-3.9021957	الأَكَمةِ	-0.0882636
-3.9021957	وراءها	-0.0882636
-3.9021957	خُذْهُ	-0.0882636
-3.9021957	بالموت	-0.0882636
-3.9021957	يرضى	-0.0882636
-3.9021957	بالحُمَّى	-0.0882636
-3.9021957	راحت	-0.0882636
-3.9021957	السكرة	-0.0882636
-3.9021957	وجاءت	-0.0882636
-3.9021957	الفكرة	-0.0882636
-3.9021957	ستبدي	-0.0882636
-3.6845112	الأيام	-0.0882636
-3.9021957	جاهلا	-0.0882636
-3.9021957	يخرج	-0.0882636
-3.9021957	الصدفة	-0.0882636
-2.980346	غير	-0.0882636
-3.9021957	الدُّرَّة	-0.0882636
-3.9021957	قَدِّرْ	-0.0882636
-3.9021957	لِرِجْلِكَ	-0.0882636
-3.3034635	قبل	-0.08826363
-3.9021957	الخطو	-0.0882636
-3.6845112	موضعها	-0.0882636
-3.9021957	كُلُّ	-0.0882636
-3.9021957	نَفسٍ	-0.0882636
-3.9021957	ذَائِقَةُ	-0.0882636
-3.9021957	المَوتِ	-0.0882636
-3.9021957	تقعن	-0.0882636
-3.6845112	البحر	-0.0882636
-3.9021957	سابحا	-0.0882636
-3.9021957	حذر	-0.0882636
-3.4118533	قدر	-0.0882636
-3.9021957	لكل	-0.0882636
-3.9021957	عالِمٍ	-0.0882636
-3.9021957	هفوة	-0.0882636
-3.6845112	ولكل	-0.0882636
-3.9021957	جَوَادٍ	-0.0882636
-3.9021957	كبوة	-0.0882636
-3.9021957	بارقة	-0.0882636
-3.9021957	تجود	-0.0882636
-3.9021957	بمائها	-0.0882636
-3.9021957	يلمع	-0.0882636
-3.9021957	ذهباً	-0.0882636
-3.6845112	كثر	-0.0882636
-3.9021957	عثاره	-0.0882636
-3.9021957	الخواطئ	-0.0882636
-3.9021957	سهم	-0.0882636
-3.9021957	صائب	-0.0882636
-3.9021957	أَمِنَ	-0.0882636
-3.9021957	الزمان	-0.0882636
-3.9021957	خانه	-0.0882636
-3.9021957	تَدَخَّلَ	-0.0882636
-3.5566263	فيما	-0.17587987
-3.9021957	يعنيه	-0.0882636
-3.9021957	لقي	-0.0882636
-3.9021957	يرضيه	-0.0882636
-3.9021957	خشى	-0.0882636
-3.9021957	أعد	-0.0882636
-3.9021957	سلك	-0.0882636
-3.9021957	الجدد	-0.0882636
-3.6845112	أمن	-0.0882636
-3.9021957	العثار	-0.0882636
-3.9021957	وكيف	-0.0882636
-3.9021957	تنام	-0.0882636
-3.6845112	الطير	-0.0882636
-3.9021957	وكناتها	-0.0882636
-3.9021957	يصانع	-0.0882636
-3.6845112	أمور	-0.0882636
-3.9021957	كثيرة	-0.0882636
-3.9021957	يضرس	-0.0882636
-3.9021957	بأنياب	-0.0882636
-3.9021957	ويوطأ	-0.0882636
-3.9021957	بمنسم	-0.0882636
-3.9021957	يجعل	-0.0882636
-3.9021957	المعروف	-0.0882636
-3.9021957	أهله	-0.0882636
-3.5566263	يكن	-0.0882636
-3.9021957	حمده	-0.0882636
-3.9021957	ذما	-0.0882636
-3.028503	عليه	-0.11274391
-3.9021957	ويندم	-0.0882636
-3.9021957	مستعجل	-0.0882636
-3.9021957	عطلك	-0.0882636
-3.9021957	خياله	-0.0882636
-3.9021957	أردت	-0.0882636
-3.9021957	تطاع	-0.0882636
-3.9021957	فأمر	-0.0882636
-3.9021957	يستطاع	-0.0882636
-3.9021957	يدنس	-0.0882636
-3.9021957	اللؤم	-0.0882636
-3.9021957	عرضه	-0.0882636
-3.9021957	فكل	-0.0882636
-3.9021957	رداء	-0.0882636
-3.9021957	يرتديه	-0.0882636
-3.6845112	جميل	-0.0882636
-3.4118533	أنت	-0.13868694
-3.9021957	أكرمت	-0.0882636
-3.2167943	الكريم	-0.12367317
-3.9021957	ملكته	-0.0882636
-3.5566263	اللئيم	-0.08826357
-3.9021957	تمردا	-0.0882636
-3.9021957	كفى	-0.0882636
-3.9021957	فضلا	-0.0882636
-3.9021957	تُعَدَّ	-0.0882636
-3.9021957	معايبه	-0.0882636
-3.9021957	حضر	-0.0882636
-3.9021957	بطل	-0.0882636
-3.9021957	التيمم	-0.0882636
-3.6845112	اذا	-0.08826357
-3.9021957	تستحي	-0.0882636
-3.9021957	فأفعل	-0.0882636
-3.6845112	تشاء	-0.2273531
-3.9021957	أطهر	-0.0882636
-3.9021957	أعراقاً	-0.0882636
-3.9021957	أحسنهم	-0.0882636
-3.9021957	أخلاقاً	-0.0882636
-3.0826735	أعرف	-0.16798377
-3.9021957	بالله	-0.0882636
-3.9021957	أرضاهم	-0.0882636
-3.9021957	قسم	-0.0882636
-3.9021957	اعف	-0.0882636
-3.9021957	عما	-0.0882636
-3.9021957	أغضبك	-0.0882636
-3.2167943	لما	-0.08826357
-3.9021957	أرضاك	-0.0882636
-3.9021957	أفضل	-0.0882636
-3.9021957	الجود	-0.0882636
-3.9021957	العطاء	-0.0882636
-3.5566263	الموعد	-0.17587987
-3.9021957	الأقربون	-0.0882636
-3.6845112	أولى	-0.0882636
-3.9021957	بالمعروف	-0.0882636
-3.9021957	الْبِشْرَ	-0.0882636
-3.9021957	دال	-0.0882636
-3.9021957	الكرم	-0.0882636
-3.9021957	التكبر	-0.0882636
-3.5566263	تواضع	-0.08826357
-3.6845112	التواضع	-0.0882636
-3.9021957	مصائد	-0.0882636
-3.9021957	الشرف	-0.0882636
-3.9021957	الجودة	-0.0882636
-3.9021957	الموجودة	-0.0882636
-3.9021957	تكفيه	-0.0882636
-3.9021957	الإشارة	-0.0882636
-3.9021957	الحِلْمُ	-0.0882636
-3.6845112	سيد	-0.0882636
-3.4118533	الأخلاق	-0.0882636
-3.9021957	الدال	-0.0882636
-3.9021957	الخير	-0.0882636
-3.9021957	كفاعله	-0.0882636
-3.9021957	الرفق	-0.0882636
-3.9021957	بالجاني	-0.0882636
-3.9021957	عتاب	-0.0882636
-3.9021957	السر	-0.0882636
-3.9021957	أمانة	-0.0882636
-3.6845112	الشريف	-0.0882636
-3.9021957	تَقَوَّى	-0.0882636
-3.9021957	والوضيع	-0.0882636
-3.9021957	تكبر	-0.0882636
-3.6845112	الصدق	-0.08826357
-3.9021957	دليل	-0.0882636
-3.9021957	التقوى	-0.0882636
-3.9021957	يحسن	-0.0882636
-3.9021957	بالفتى	-0.0882636
-3.9021957	والكذب	-0.0882636
-3.9021957	يحسب	-0.0882636
-3.9021957	عيوبه	-0.0882636
-3.9021957	الضحك	-0.0882636
-3.9021957	سبب	-0.0882636
-3.9021957	قلة	-0.0882636
-3.9021957	الأدب	-0.0882636
-3.9021957	العتاب	-0.0882636
-3.9021957	الحقد	-0.0882636
-3.9021957	صابون	-0.0882636
-3.9021957	العفة	-0.0882636
-3.9021957	جيش	-0.0882636
-3.9021957	لايهزم	-0.0882636
-3.6845112	العفو	-0.08826357
-3.9021957	المقدرة	-0.0882636
-3.9021957	يصلح	-0.0882636
-3.9021957	ويفسد	-0.0882636
-3.5566263	الغنى	-0.0882636
-3.6845112	يد	-0.0882636
-3.9021957	قبيح	-0.0882636
-3.9021957	قبح	-0.0882636
-3.9021957	الإملاق	-0.0882636
-3.9021957	الفضل	-0.0882636
-3.9021957	شهدت	-0.0882636
-3.9021957	الأعداء	-0.0882636
-3.9021957	القدوة	-0.0882636
-3.9021957	الحسنة	-0.0882636
-3.9021957	النصيحة	-0.0882636
-3.9021957	الوصية	-0.0882636
-3.6845112	القناعة	-0.0882636
-3.9021957	كنز	-0.0882636
-3.9021957	يفنى	-0.0882636
-3.6845112	الكذب	-0.0882636
-3.5566263	داء	-0.08826357
-3.9021957	والصدق	-0.0882636
-2.980346	دواء	-0.14699158
-3.9021957	أكرم	-0.0882636
-3.6845112	الأحرار	-0.0882636
-3.6845112	يظلم	-0.2273531
-3.9021957	فوقه	-0.0882636
-3.9021957	واللئيم	-0.0882636
-3.9021957	تحته	-0.0882636
-3.6845112	المؤمن	-0.0882636
-3.9021957	كالنحلة	-0.0882636
-3.9021957	تأكل	-0.0882636
-3.5566263	طيبا	-0.17587987
-3.9021957	وتضع	-0.0882636
-3.5566263	بالأخلاق	-0.08826357
-3.9021957	يسمو	-0.0882636
-3.9021957	ذكره	-0.0882636
-3.9021957	النظافة	-0.0882636
-3.9021957	الإيمان	-0.0882636
-3.9021957	النعمة	-0.0882636
-3.9021957	عروس	-0.0882636
-3.9021957	مهرها	-0.0882636
-3.9021957	الشكر	-0.0882636
-3.9021957	الوعد	-0.0882636
-3.9021957	سحاب	-0.0882636
-3.9021957	والإنجاز	-0.0882636
-3.9021957	مطره	-0.0882636
-3.6845112	أملك	-0.08826357
-3.5566263	لنفسه	-0.08826357
-3.9021957	كتم	-0.0882636
-3.9021957	سره	-0.0882636
-3.9021957	يحب	-0.0882636
-3.9021957	معالي	-0.0882636
-3.9021957	الأمور	-0.0882636
-3.9021957	ويبغض	-0.0882636
-3.9021957	سفاسفها	-0.0882636
-3.9021957	المقْدِرة	-0.0882636
-3.9021957	تُذْهِبَ	-0.0882636
-3.9021957	الحفيظة	-0.0882636
-3.9021957	بأصغريه	-0.0882636
-3.9021957	قلبه	-0.0882636
-3.9021957	ولسانه	-0.0882636
-3.9021957	سُمِّيتَ	-0.0882636
-3.9021957	هانئاً	-0.0882636
-3.9021957	لتهنأ	-0.0882636
-3.9021957	نسيج	-0.0882636
-3.9021957	وحده	-0.0882636
-3.9021957	بالعفو	-0.0882636
-3.9021957	أقدرهم	-0.0882636
-3.9021957	العقوبة	-0.0882636
-3.9021957	إياك	-0.0882636
-3.9021957	يعتذر	-0.0882636
-3.1445768	منه	-0.11908581
-3.9021957	بالأرض	-0.0882636
-3.9021957	ولدتك	-0.0882636
-3.9021957	أمك	-0.0882636
-3.9021957	بِشْرُ	-0.0882636
-3.6845112	وجهه	-0.17587987
-3.9021957	يلوح	-0.0882636
-3.9021957	المحسن	-0.0882636
-3.9021957	عمار	-0.0882636
-3.9021957	تاج	-0.0882636
-3.6845112	المروءة	-0.0882636
-3.9021957	ترك	-0.0882636
-3.9021957	الذنب	-0.0882636
-3.9021957	أيسر	-0.0882636
-3.9021957	الاعتذار	-0.0882636
-3.9021957	تمام	-0.0882636
-3.9021957	الإخبار	-0.0882636
-3.9021957	تحمله	-0.0882636
-3.6845112	العقول	-0.2273531
-3.9021957	تناس	-0.0882636
-3.9021957	مساوئ	-0.0882636
-3.6845112	الإخوان	-0.0882636
-3.9021957	يدم	-0.0882636
-3.9021957	وُدُّهُمْ	-0.0882636
-3.9021957	حُسْنُ	-0.0882636
-3.6845112	الخلق	-0.0882636
-3.9021957	قرين	-0.0882636
-3.9021957	يذيب	-0.0882636
-3.9021957	الخطايا	-0.0882636
-3.9021957	تذيب	-0.0882636
-3.9021957	الشمس	-0.0882636
-3.9021957	الجليد	-0.0882636
-3.9021957	يوجب	-0.0882636
-3.9021957	المودة	-0.0882636
-3.9021957	حق	-0.0882636
-3.9021957	كتب	-0.0882636
-3.9021957	بمسك	-0.0882636
-3.9021957	يختم	-0.0882636
-3.9021957	بعنبر	-0.0882636
-3.9021957	خلقت	-0.0882636
-3.9021957	مُبَرَّأً	-0.0882636
-3.9021957	عيب	-0.0882636
-3.9021957	كأنك	-0.0882636
-3.9021957	خُلقْتَ	-0.0882636
-3.6845112	للناس	-0.0882636
-3.9021957	خيرهم	-0.0882636
-3.9021957	فرح	-0.0882636
-3.9021957	بالخير	-0.0882636
-3.9021957	صِلاتِ	-0.0882636
-3.9021957	أَعْوَدُها	-0.0882636
-3.6845112	خيركم	-0.0882636
-3.9021957	لأهله	-0.0882636
-3.9021957	ذكر	-0.0882636
-3.6845112	الفتى	-0.0882636
-3.4118533	عمره	-0.08826357
-3.3034635	الثاني	-0.13868694
-3.3034635	ساقي	-0.17220847
-3.6845112	القوم	-0.0882636
-3.9021957	آخرهم	-0.0882636
-3.9021957	شراباً	-0.0882636
-3.6845112	سر	-0.0882636
-3.6845112	النجاح	-0.0882636
-3.9021957	الدوام	-0.0882636
-3.9021957	تسير	-0.0882636
-3.9021957	الأمام	-0.0882636
-3.9021957	خادمهم	-0.0882636
-3.9021957	شكرت	-0.0882636
-3.9021957	صنعكم	-0.0882636
-3.9021957	بدمعي	-0.0882636
-3.9021957	ودمع	-0.0882636
-3.9021957	مقياس	-0.0882636
-3.9021957	الشعور	-0.0882636
-3.9021957	صلاح	-0.0882636
-3.6845112	أمرك	-0.0882636
-3.9021957	مرجعه	-0.0882636
-3.9021957	فَقَوِّم	-0.0882636
-3.9021957	تستقم	-0.0882636
-3.9021957	عامل	-0.0882636
-3.9021957	برأي	-0.0882636
-3.9021957	رفيق	-0.0882636
-3.9021957	والق	-0.0882636
-3.6845112	تلقى	-0.0882636
-3.9021957	بوجه	-0.0882636
-3.6845112	طليق	-0.0882636
-3.9021957	تحب	-0.0882636
-3.9021957	يعاملوك	-0.0882636
-3.9021957	عصفور	-0.0882636
-3.6845112	اليد	-0.0882636
-3.4118533	عشرة	-0.0882636
-2.7682245	عندما	-0.12745234
-3.5566263	تكون	-0.08826357
-3.5566263	روما	-0.17587987
-3.6845112	تصرف	-0.0882636
-3.9021957	يتصرف	-0.0882636
-3.9021957	الرومان	-0.0882636
-3.9021957	فرط	-0.0882636
-3.9021957	الأنس	-0.0882636
-3.9021957	مكسبة	-0.0882636
-3.9021957	لقرناء	-0.0882636
-3.9021957	فلان	-0.0882636
-3.9021957	دُرَّةُ	-0.0882636
-3.9021957	التاج	-0.0882636
-3.9021957	وواسطة	-0.0882636
-3.9021957	العقد	-0.0882636
-3.9021957	فَمَن	-0.0882636
-3.9021957	يَعمَل	-0.0882636
-3.9021957	مِثقَالَ	-0.0882636
-3.9021957	ذَرَّةٍ	-0.0882636
-3.9021957	خَيرًا	-0.0882636
-3.9021957	يَرَهُ	-0.0882636
-3.9021957	سعة	-0.0882636
-3.9021957	كنوز	-0.0882636
-3.9021957	الأرزاق	-0.0882636
-3.9021957	قُل	-0.0882636
-3.9021957	كُلٌّ	-0.0882636
-3.9021957	يَعمَلُ	-0.0882636
-3.9021957	عَلَى	-0.0882636
-3.9021957	شَاكِلَتِهِ	-0.0882636
-3.6845112	قلب	-0.0882636
-3.9021957	دليله	-0.0882636
-3.9021957	الجيب	-0.0882636
-3.9021957	الغيب	-0.0882636
-3.9021957	قَولٌ	-0.0882636
-3.9021957	مَّعرُوفٌ	-0.0882636
-3.9021957	وَمَغفِرَةُ	-0.0882636
-3.9021957	خَيرٌ	-0.0882636
-3.9021957	مِّن	-0.0882636
-3.9021957	صَدَقَةٍ	-0.0882636
-3.9021957	يَتبَعُهَا	-0.0882636
-3.9021957	أَذًى	-0.0882636
-3.6845112	امرئ	-0.0882636
-3.9021957	يحسنه	-0.0882636
-3.9021957	السؤال	-0.0882636
-3.9021957	يُذِلُّ	-0.0882636
-3.9021957	قوما	-0.0882636
-3.9021957	كذاك	-0.0882636
-3.9021957	يعز	-0.0882636
-3.6845112	قوم	-0.0882636
-3.9021957	بالعطاء	-0.0882636
-3.9021957	تشن	-0.0882636
-3.9021957	بالتأنيب	-0.0882636
-3.9021957	تكن	-0.0882636
-3.9021957	حلواً	-0.0882636
-3.9021957	فتؤكل	-0.0882636
-3.9021957	مراً	-0.0882636
-3.9021957	فترمى	-0.0882636
-3.9021957	تمازح	-0.0882636
-3.9021957	فيحنق	-0.0882636
-3.5566263	عليك	-0.08826357
-3.9021957	الدنيء	-0.0882636
-3.9021957	فيتجرأ	-0.0882636
-3.9021957	تنه	-0.0882636
-3.6845112	وتأتي	-0.0882636
-3.6845112	مثله	-0.0882636
-3.9021957	عار	-0.0882636
-3.9021957	فعلت	-0.0882636
-3.9021957	عظيم	-0.0882636
-3.9021957	فيمن	-0.0882636
-3.9021957	يَأْلَفُ	-0.0882636
-3.9021957	يؤلف	-0.0882636
-3.9021957	مقام	-0.0882636
-3.9021957	مقال	-0.0882636
-3.9021957	زمان	-0.0882636
-3.9021957	رجال	-0.0882636
-3.9021957	للشدائد	-0.0882636
-3.9021957	تُدَّخَرُ	-0.0882636
-3.5566263	الرجال	-0.08826357
-3.9021957	ينجي	-0.0882636
-3.9021957	فالصدق	-0.0882636
-3.9021957	أنجى	-0.0882636
-3.6845112	قال	-0.0882636
-3.9021957	قولا	-0.0882636
-3.9021957	وفى	-0.0882636
-3.9021957	بستان	-0.0882636
-3.9021957	حسن	-0.08826357
-3.9021957	إسلام	-0.0882636
-3.9021957	تَرْكُهُ	-0.0882636
-3.9021957	معاتبة	-0.0882636
-3.9021957	فقدهم	-0.0882636
-3.5566263	لله	-0.13868694
-3.9021957	رفعه	-0.0882636
-3.9021957	خُلُقُه	-0.0882636
-3.9021957	استراح	-0.0882636
-3.9021957	وأراح	-0.0882636
-3.9021957	خُلقُه	-0.0882636
-3.9021957	وجب	-0.0882636
-3.9021957	حقُّه	-0.0882636
-3.5566263	شابه	-0.17587987
-3.9021957	أباه	-0.0882636
-3.9021957	شَبَّ	-0.0882636
-3.4118533	شاب	-0.17587987
-3.6845112	عرف	-0.0882636
-3.9021957	ربه	-0.0882636
-3.9021957	يقنع	-0.0882636
-3.9021957	باليسير	-0.0882636
-3.9021957	يكتف	-0.0882636
-3.9021957	بالكثير	-0.0882636
-3.4118533	نعم	-0.09726362
-3.9021957	الثوب	-0.0882636
-3.9021957	العافية	-0.0882636
-3.9021957	انسدل	-0.0882636
-3.9021957	الكفاف	-0.0882636
-3.9021957	العون	-0.0882636
-3.028503	المال	-0.1540712
-3.9021957	المؤَدِّبُ	-0.0882636
-3.9021957	حاجب	-0.0882636
-3.9021957	الشهوات	-0.0882636
-3.9021957	غض	-0.0882636
-3.5566263	البصر	-0.23455952
-2.0698714	هذا	-0.48302048
-3.9021957	الشبل	-0.0882636
-3.6845112	ذاك	-0.0882636
-3.5566263	الأسد	-0.23455952
-3.9021957	تنبت	-0.0882636
-3.9021957	كالنبات	-0.0882636
-3.9021957	سقيت	-0.0882636
-3.9021957	بماء	-0.0882636
-3.9021957	المكرمات	-0.0882636
-3.9021957	هيهات	-0.0882636
-3.9021957	تكتم	-0.0882636
-3.9021957	الظلام	-0.0882636
-3.9021957	مشاعل	-0.0882636
-3.9021957	وأحسن	-0.0882636
-3.2167943	منك	-0.16222814
-3.9021957	تر	-0.0882636
-3.6845112	قط	-0.0882636
-3.9021957	عيني	-0.0882636
-3.9021957	وأجمل	-0.0882636
-3.9021957	تلد	-0.0882636
-3.9021957	النساء	-0.0882636
-3.4118533	وإنما	-0.0882636
-3.9021957	الأمم	-0.0882636
-3.4118533	بقيت	-0.12367317
-3.5566263	هم	-0.08826357
-3.6845112	ذهبت	-0.0882636
-3.9021957	أخلاقهم	-0.0882636
-3.6845112	ذهبوا	-0.0882636
-3.9021957	وإني	-0.0882636
-3.6845112	الأخير	-0.0882636
-3.9021957	زمانه	-0.0882636
-3.9021957	لآت	-0.0882636
-3.9021957	تستطعه	-0.0882636
-3.9021957	الأوائل	-0.0882636
-3.9021957	وأي	-0.0882636
-2.6915095	ليس	-0.19263624
-3.9021957	عيوب	-0.0882636
-3.9021957	الكرام	-0.0882636
-3.9021957	المكارم	-0.0882636
-3.9021957	وتعظم	-0.0882636
-3.5566263	عين	-0.0882636
-3.9021957	الصغير	-0.0882636
-3.9021957	صغارها	-0.0882636
-3.9021957	وتصغر	-0.0882636
-3.9021957	العظيم	-0.0882636
-3.9021957	العظائم	-0.0882636
-3.9021957	وَلَو	-0.0882636
-3.9021957	كُنتَ	-0.0882636
-3.9021957	فَظًّا	-0.0882636
-3.9021957	غَلِيظَ	-0.0882636
-3.9021957	القَلبِ	-0.0882636
-3.9021957	لاَنفَضُّواْ	-0.0882636
-3.9021957	مِن	-0.0882636
-3.9021957	حَولِكَ	-0.0882636
-3.9021957	ومهما	-0.0882636
-3.9021957	خَليقَةٍ	-0.0882636
-3.9021957	خالها	-0.0882636
-3.9021957	تَخْفَى	-0.0882636
-3.9021957	تُعْلَمِ	-0.0882636
-3.9021957	ميزان	-0.0882636
-3.9021957	يَغْرِفُ	-0.0882636
-3.6845112	بحر	-0.0882636
-3.5566263	جديد	-0.08826357
-3.9021957	لذة	-0.0882636
-3.9021957	الثروة	-0.0882636
-3.9021957	تأتي	-0.0882636
-3.9021957	كالسلحفاة	-0.0882636
-3.9021957	وتذهب	-0.0882636
-3.9021957	كالغزال	-0.0882636
-3.9021957	الدراهم	-0.0882636
-3.9021957	مراهم	-0.0882636
-3.9021957	غلا	-0.0882636
-3.9021957	اللحم	-0.0882636
-3.9021957	فالصبر	-0.0882636
-3.9021957	رخيص	-0.0882636
-3.9021957	تمنيت	-0.0882636
-3.9021957	فاستكثر	-0.0882636
-3.9021957	يجلب	-0.0882636
-3.9021957	أغن	-0.0882636
-3.9021957	وليته	-0.0882636
-3.9021957	السرقة	-0.0882636
-3.9021957	الأماني	-0.0882636
-3.9021957	رءوس	-0.0882636
-3.5566263	مال	-0.17587987
-3.9021957	المفاليس	-0.0882636
-3.9021957	التدبير	-0.0882636
-3.9021957	يثمر	-0.0882636
-3.9021957	اليسير	-0.0882636
-3.9021957	والتبذير	-0.0882636
-3.9021957	يبدد	-0.0882636
-3.6845112	الكثير	-0.0882636
-3.9021957	بالأموال	-0.0882636
-3.9021957	الشرط	-0.0882636
-3.9021957	نور	-0.0882636
-3.9021957	الضامن	-0.0882636
-3.9021957	غارم	-0.0882636
-3.9021957	الغالي	-0.0882636
-3.9021957	ثمنه	-0.0882636
-3.1445768	فيه	-0.17220847
-3.9021957	يورث	-0.0882636
-3.9021957	البطر	-0.0882636
-3.6845112	القرش	-0.0882636
-3.6845112	الأبيض	-0.0882636
-3.9021957	ينفع	-0.0882636
-3.0826735	اليوم	-0.37712908
-3.9021957	الأسود	-0.0882636
-3.9021957	القلة	-0.0882636
-3.9021957	ذلة	-0.0882636
-3.9021957	ينفد	-0.0882636
-3.9021957	حله	-0.0882636
-3.9021957	وحرامه	-0.0882636
-3.9021957	يوماً	-0.0882636
-3.9021957	ويبقى	-0.0882636
-3.0826735	بعد	-0.0882636
-2.6263328	ذلك	-0.30767897
-3.9021957	إثمه	-0.0882636
-3.9021957	والعز	-0.0882636
-3.9021957	والذل	-0.0882636
-3.9021957	الحرص	-0.0882636
-3.2167943	وفي	-0.08826357
-3.9021957	الوضاعة	-0.0882636
-3.9021957	مالك	-0.0882636
-3.6845112	نفعك	-0.0882636
-3.9021957	الأشياء	-0.0882636
-3.9021957	جديدها	-0.0882636
-3.9021957	مالوا	-0.0882636
-3.9021957	عنده	-0.0882636
-3.9021957	رِزْقُه	-0.0882636
-3.9021957	رجليه	-0.0882636
-3.9021957	صياد	-0.0882636
-3.6845112	غنى	-0.0882636
-3.9021957	يجمع	-0.0882636
-3.9021957	آكله	-0.0882636
-3.9021957	ويأكل	-0.0882636
-3.9021957	جمعه	-0.0882636
-3.9021957	تصلحه	-0.0882636
-3.9021957	فيبقى	-0.0882636
-3.9021957	يبقى	-0.0882636
-2.7156062	مع	-0.13326707
-3.9021957	الفساد	-0.0882636
-3.9021957	دائم	-0.0882636
-3.9021957	منقطع	-0.0882636
-3.6845112	كاد	-0.0882636
-3.9021957	الفقر	-0.0882636
-3.4118533	يكون	-0.15226379
-3.9021957	كفراً	-0.0882636
-3.5566263	البلاد	-0.17587987
-3.9021957	أموال	-0.0882636
-3.9021957	نتيجة	-0.0882636
-3.9021957	الأعمال	-0.0882636
-3.9021957	تبع	-0.0882636
-3.9021957	نقداً	-0.0882636
-3.9021957	بدين	-0.0882636
-3.9021957	لَن	-0.0882636
-3.9021957	تَنَالُواْ	-0.0882636
-3.9021957	البِرَّ	-0.0882636
-3.9021957	حَتَّى	-0.0882636
-3.9021957	تُنفِقُواْ	-0.0882636
-3.9021957	مِمَّا	-0.0882636
-3.9021957	تُحِبُّونَ	-0.0882636
-3.9021957	يعد	-0.0882636
-2.980346	ذو	-0.34054565
-3.9021957	غنيا	-0.0882636
-3.9021957	قومه	-0.0882636
-3.9021957	مرضيا	-0.0882636
-3.9021957	والأهلون	-0.0882636
-3.9021957	وديعة	-0.0882636
-3.9021957	تُرَدَّ	-0.0882636
-3.9021957	الودائع	-0.0882636
-3.6845112	يمضي	-0.0882636
-3.9021957	أخوك	-0.0882636
-3.9021957	خلفا	-0.0882636
-3.9021957	والمال	-0.0882636
-3.9021957	ذهاب	-0.0882636
-3.9021957	يكتسب	-0.0882636
-3.6845112	بسرعة	-0.0882636
-3.6845112	يذهب	-0.0882636
-3.9021957	العنزة	-0.0882636
-3.9021957	ترعى	-0.0882636
-3.9021957	بمرعاها	-0.0882636
-3.9021957	السَّرْج	-0.0882636
-3.9021957	المُذهَّب	-0.0882636
-3.9021957	يجعلُ	-0.0882636
-3.9021957	الحمار	-0.0882636
-3.9021957	حصاناً	-0.0882636
-3.9021957	اتق	-0.0882636
-3.9021957	تصحبه	-0.0882636
-3.9021957	رقعت	-0.0882636
-3.9021957	جانبا	-0.0882636
-3.9021957	صفقته	-0.0882636
-3.6845112	وهنا	-0.0882636
-3.9021957	فانخرق	-0.0882636
-3.9021957	اتَّكَلْنا	-0.0882636
-3.9021957	خُصٍّ	-0.0882636
-3.9021957	أَخْفَقَ	-0.0882636
-3.9021957	حالب	-0.0882636
-3.9021957	التيس	-0.0882636
-3.9021957	تخاصم	-0.0882636
-3.9021957	اللصان	-0.0882636
-3.9021957	ظهر	-0.0882636
-3.9021957	المسروق	-0.0882636
-3.6845112	تدري	-0.0882636
-3.9021957	فتلك	-0.0882636
-3.6845112	مصيبة	-0.0882636
-3.9021957	فالمصيبة	-0.0882636
-3.6845112	أعظم	-0.0882636
-3.9021957	أساء	-0.0882636
-3.9021957	سمعاً	-0.0882636
-3.9021957	فأساء	-0.0882636
-3.9021957	إجابة	-0.0882636
-3.9021957	استندت	-0.0882636
-3.9021957	خصٍ	-0.0882636
-3.9021957	مائلٍ	-0.0882636
-3.9021957	استنوق	-0.0882636
-3.9021957	الجمل	-0.0882636
-3.9021957	أسمع	-0.0882636
-3.9021957	جعجعة	-0.0882636
-3.6845112	أرى	-0.0882636
-3.9021957	طحنا	-0.0882636
-3.9021957	أضعت	-0.0882636
-3.9021957	شاة	-0.0882636
-3.9021957	جعلت	-0.0882636
-3.9021957	حارسها	-0.0882636
-3.6845112	أما	-0.0882636
-3.9021957	علمت	-0.0882636
-3.9021957	بأن	-0.0882636
-3.9021957	حراس	-0.0882636
-3.6845112	الجهل	-0.0882636
-3.6845112	موت	-0.0882636
-3.9021957	الأحياء	-0.0882636
-3.9021957	الحُمْقُ	-0.0882636
-3.9021957	الضرب	-0.0882636
-3.9021957	الميت	-0.0882636
-3.6845112	حرام	-0.2273531
-3.9021957	الغريب	-0.0882636
-3.4118533	ولو	-0.0882636
-3.9021957	بصيراً	-0.0882636
-3.9021957	ألقاب	-0.0882636
-3.9021957	مملكة	-0.0882636
-3.9021957	كالهر	-0.0882636
-3.9021957	يحكي	-0.0882636
-3.9021957	انتفاخا	-0.0882636
-3.9021957	صولة	-0.0882636
-2.6469903	الذي	-0.12221076
-3.3034635	يعرف	-0.1450498
-3.9021957	الصقر	-0.0882636
-3.9021957	يشويه	-0.0882636
-3.9021957	يعرفك	-0.0882636
-3.9021957	يجهلك	-0.0882636
-3.9021957	القصيدة	-0.0882636
-3.9021957	كفر	-0.0882636
-3.9021957	شطح	-0.0882636
-3.9021957	نطح	-0.0882636
-3.9021957	باب	-0.0882636
-3.9021957	النجار	-0.0882636
-3.9021957	مخَلَّع	-0.0882636
-3.9021957	باع	-0.0882636
-3.9021957	كرمه	-0.0882636
-3.9021957	واشترى	-0.0882636
-3.9021957	معصرة	-0.0882636
-3.9021957	بذات	-0.0882636
-3.9021957	فمه	-0.0882636
-3.9021957	يفتضح	-0.0882636
-3.9021957	الكذوب	-0.0882636
-3.9021957	تطلب	-0.0882636
-3.9021957	أثراً	-0.0882636
-3.9021957	جنت	-0.0882636
-3.9021957	نفسها	-0.0882636
-3.9021957	براقش	-0.0882636
-3.9021957	حافٍ	-0.0882636
-3.9021957	يسخر	-0.0882636
-3.9021957	بناعل	-0.0882636
-3.9021957	حسبه	-0.0882636
-3.9021957	صيدا	-0.0882636
-3.9021957	فكان	-0.0882636
-3.9021957	قيدا	-0.0882636
-3.9021957	حظ	-0.0882636
-3.9021957	السحاب	-0.0882636
-3.9021957	وعقل	-0.0882636
-3.9021957	التراب	-0.0882636
-3.9021957	حيلة	-0.0882636
-3.9021957	العاجز	-0.0882636
-3.9021957	دموعه	-0.0882636
-3.9021957	زارع	-0.0882636
-3.9021957	حاصد	-0.0882636
-3.9021957	سواه	-0.0882636
-3.9021957	ربما	-0.0882636
-3.9021957	أراد	-0.0882636
-3.9021957	فضرك	-0.0882636
-3.9021957	كالإبرة	-0.0882636
-3.9021957	تكسي	-0.0882636
-3.9021957	غيرها	-0.0882636
-3.5566263	وهي	-0.08826357
-3.9021957	عريانة	-0.0882636
-3.9021957	كالأطرش	-0.0882636
-3.9021957	الزَّفَّة	-0.0882636
-3.9021957	شر	-0.0882636
-3.9021957	البلية	-0.0882636
-3.9021957	يضحك	-0.0882636
-3.9021957	شفيت	-0.0882636
-3.6845112	نفسي	-0.0882636
-3.9021957	ولكن	-0.0882636
-3.9021957	جدعت	-0.0882636
-3.9021957	أنفي	-0.0882636
-3.5566263	طبيب	-0.08826357
-3.9021957	يداوي	-0.0882636
-2.8614612	وهو	-0.10697091
-3.9021957	عليل	-0.0882636
-3.9021957	طمع	-0.0882636
-3.9021957	إبليس	-0.0882636
-3.9021957	الجنة	-0.0882636
-3.9021957	عنز	-0.0882636
-3.9021957	استتيست	-0.0882636
-3.9021957	غاب	-0.0882636
-3.9021957	حولين	-0.0882636
-3.9021957	وجاء	-0.0882636
-3.9021957	بِخُفَّيْ	-0.0882636
-3.9021957	حنين	-0.0882636
-3.9021957	غضبه	-0.0882636
-3.9021957	طرف	-0.0882636
-3.6845112	أنفه	-0.2273531
-3.9021957	ركب	-0.0882636
-3.9021957	الفيل	-0.0882636
-3.9021957	وقال	-0.0882636
-3.9021957	تبصروني	-0.0882636
-3.9021957	موقدا	-0.0882636
-3.9021957	نارا	-0.0882636
-3.6845112	لغيرك	-0.0882636
-3.9021957	ضوؤها	-0.0882636
-3.9021957	قيل	-0.0882636
-3.9021957	للبغل	-0.0882636
-3.9021957	أبوك	-0.0882636
-3.9021957	الفرس	-0.0882636
-3.1445768	خالي	-0.12367317
-3.9021957	كالحادي	-0.0882636
-3.3034635	وليس	-0.13868694
-3.9021957	بعير	-0.0882636
-3.9021957	كالمحتمي	-0.0882636
-3.9021957	ببيت	-0.0882636
-3.9021957	العنكبوت	-0.0882636
-3.9021957	كالمستجير	-0.0882636
-3.9021957	الرمضاء	-0.0882636
-3.9021957	بالنار	-0.0882636
-3.9021957	كطالب	-0.0882636
-3.9021957	الصيد	-0.0882636
-3.9021957	عرين	-0.0882636
-3.9021957	الذباب	-0.0882636
-3.9021957	هان	-0.0882636
-3.9021957	قتله	-0.0882636
-3.9021957	كناطح	-0.0882636
-3.9021957	صخرة	-0.0882636
-3.9021957	ليكسرها	-0.0882636
-3.6845112	فلم	-0.0882636
-3.9021957	يضرها	-0.0882636
-3.9021957	وأوهى	-0.0882636
-3.9021957	قرنه	-0.0882636
-3.9021957	الوعل	-0.0882636
-3.9021957	طال	-0.0882636
-3.9021957	توت	-0.0882636
-3.5566263	الشام	-0.08826357
-3.9021957	عنب	-0.0882636
-3.5566263	اليمن	-0.08826357
-3.9021957	لأمر	-0.0882636
-3.9021957	جدع	-0.0882636
-3.9021957	قصير	-0.0882636
-3.9021957	الجاهل	-0.0882636
-3.9021957	مفتاح	-0.0882636
-3.9021957	حتفه	-0.0882636
-3.9021957	يستطب	-0.0882636
-3.9021957	الحماقة	-0.0882636
-3.9021957	أعيت	-0.0882636
-3.9021957	يداويها	-0.0882636
-3.9021957	الحريص	-0.0882636
-3.9021957	بزائد	-0.0882636
-3.9021957	رزقه	-0.0882636
-3.9021957	تدخل	-0.0882636
-3.9021957	جهل	-0.0882636
-3.6845112	بقدر	-0.0882636
-3.9021957	غيره	-0.0882636
-3.9021957	أجهل	-0.0882636
-3.9021957	نام	-0.0882636
-3.028503	ساعة	-0.2691185
-3.9021957	الرحيل	-0.0882636
-3.9021957	نزل	-0.0882636
-3.9021957	بواد	-0.0882636
-3.9021957	ذي	-0.0882636
-3.9021957	زرع	-0.0882636
-3.9021957	همه	-0.0882636
-3.9021957	يتجاوز	-0.0882636
-3.9021957	طرفي	-0.0882636
-3.9021957	ردائه	-0.0882636
-3.9021957	وذى	-0.0882636
-3.9021957	علة	-0.0882636
-3.9021957	عليلا	-0.0882636
-3.9021957	ليشتفي	-0.0882636
-3.9021957	جار	-0.0882636
-3.9021957	للمسيح	-0.0882636
-3.9021957	بن	-0.0882636
-3.9021957	مريم	-0.0882636
-3.6845112	الضرغام	-0.0882636
-3.9021957	بازا	-0.0882636
-3.9021957	لصيده	-0.0882636
-3.9021957	تَصَيَّدَهُ	-0.0882636
-3.9021957	تصيدا	-0.0882636
-3.9021957	يبني	-0.0882636
-3.9021957	قصراً	-0.0882636
-3.9021957	ويهدم	-0.0882636
-3.9021957	مصراً	-0.0882636
-3.9021957	يُدْخِلُ	-0.0882636
-3.9021957	شعبان	-0.0882636
-3.9021957	رمضان	-0.0882636
-3.9021957	يدع	-0.0882636
-3.9021957	ويطلب	-0.0882636
-3.9021957	الأثر	-0.0882636
-3.9021957	يدهن	-0.0882636
-3.9021957	قارورة	-0.0882636
-3.9021957	فارغة	-0.0882636
-3.9021957	يذبح	-0.0882636
-3.9021957	الطاووس	-0.0882636
-3.9021957	لجمال	-0.0882636
-3.6845112	يصوم	-0.0882636
-3.9021957	ويفطر	-0.0882636
-3.9021957	بصلة	-0.0882636
-3.9021957	يَهُبُّ	-0.0882636
-3.9021957	ريح	-0.0882636
-3.9021957	ويسعى	-0.0882636
-3.9021957	أحمد	-0.0882636
-3.9021957	البلاغة	-0.0882636
-3.6845112	الصمت	-0.0882636
-3.5566263	حين	-0.08826357
-3.9021957	يَحْسُنُ	-0.0882636
-3.5566263	الكلام	-0.17587987
-3.9021957	تكلمت	-0.0882636
-3.9021957	بالكلمة	-0.0882636
-3.9021957	ملكتك	-0.0882636
-3.9021957	وإذا	-0.0882636
-3.9021957	تتكلم	-0.0882636
-2.8975904	بها	-0.109473884
-3.9021957	ملكتها	-0.0882636
-3.9021957	السكوت	-0.0882636
-3.2167943	علامة	-0.15226379
-3.9021957	الرضا	-0.0882636
-3.2167943	رد	-0.22222714
-3.9021957	تقل	-0.0882636
-3.9021957	أقدر	-0.0882636
-3.4118533	قلت	-0.0882636
-3.0826735	وأن	-0.17533785
-3.9021957	يضرب	-0.0882636
-3.5566263	لسانك	-0.08826357
-3.9021957	عنقك	-0.0882636
-3.9021957	تكلم	-0.0882636
-3.9021957	كلم	-0.0882636
-3.9021957	موسى	-0.0882636
-3.9021957	الخلال	-0.0882636
-3.9021957	حفظ	-0.0882636
-3.9021957	قل	-0.0882636
-3.9021957	ودل	-0.0882636
-3.9021957	سكوت	-0.0882636
-3.6845112	أبلغ	-0.2273531
-3.6845112	كلام	-0.0882636
-3.9021957	قول	-0.0882636
-3.9021957	صول	-0.0882636
-3.9021957	يثير	-0.0882636
-3.9021957	الحروب	-0.0882636
-3.9021957	كلمة	-0.0882636
-3.9021957	قالت	-0.0882636
-3.9021957	لصاحبها	-0.0882636
-3.9021957	دعني	-0.0882636
-3.9021957	سرك	-0.0882636
-3.9021957	أسيرك	-0.0882636
-3.9021957	سلامة	-0.0882636
-3.9021957	الإنسان	-0.0882636
-3.9021957	حلاوة	-0.0882636
-3.9021957	صدرك	-0.0882636
-3.9021957	أوسع	-0.0882636
-3.9021957	لسرك	-0.0882636
-3.9021957	صدور	-0.0882636
-3.9021957	قبور	-0.0882636
-3.9021957	الأسرار	-0.0882636
-3.6845112	عثرة	-0.0882636
-3.9021957	القدم	-0.0882636
-3.9021957	أسلم	-0.0882636
-3.9021957	كأن	-0.0882636
-3.9021957	رءوسهم	-0.0882636
-3.9021957	جاوز	-0.0882636
-3.9021957	الاثنين	-0.0882636
-3.9021957	شاع	-0.0882636
-3.9021957	تطلقن	-0.0882636
-3.6845112	القول	-0.0882636
-3.9021957	بصر	-0.0882636
-3.9021957	مأمون	-0.0882636
-3.9021957	الضرر	-0.0882636
-3.9021957	تهرف	-0.0882636
-3.4118533	تعرف	-0.12986597
-3.9021957	عقله	-0.0882636
-3.9021957	ترجمانه	-0.0882636
-3.3034635	متى	-0.17002046
-3.6845112	زل	-0.0882636
-3.9021957	عقل	-0.0882636
-3.9021957	لسانه	-0.0882636
-3.9021957	حصانك	-0.0882636
-3.9021957	صنته	-0.0882636
-3.9021957	صانك	-0.0882636
-3.9021957	هنته	-0.0882636
-3.9021957	هانك	-0.0882636
-3.9021957	الساكت	-0.0882636
-3.9021957	شيطان	-0.0882636
-3.9021957	أخرس	-0.0882636
-3.9021957	مقتل	-0.0882636
-3.5566263	الرجل	-0.08826357
-3.4118533	بين	-0.0882636
-3.9021957	فكيه	-0.0882636
-3.6845112	ملكت	-0.0882636
-3.9021957	منطقي	-0.0882636
-3.9021957	الخيار	-0.0882636
-3.9021957	بيده	-0.0882636
-3.9021957	واحفظ	-0.0882636
-3.9021957	تقول	-0.0882636
-3.9021957	فتبتلى	-0.0882636
-3.9021957	البلاء	-0.0882636
-3.9021957	موكل	-0.0882636
-3.9021957	بالمنطق	-0.0882636
-3.9021957	وبعض	-0.0882636
-3.9021957	وَجُرْحُ	-0.0882636
-3.9021957	كَجُرْحِ	-0.0882636
-3.9021957	ستر	-0.0882636
-3.9021957	للغيّ	-0.0882636
-3.9021957	صحيفة	-0.0882636
-3.9021957	لب	-0.0882636
-3.9021957	يتكلما	-0.0882636
-3.9021957	ولفظة	-0.0882636
-3.9021957	زائغة	-0.0882636
-3.9021957	سبيلها	-0.0882636
-3.9021957	سلبت	-0.0882636
-3.9021957	يقولها	-0.0882636
-3.9021957	لسره	-0.0882636
-3.9021957	كتوما	-0.0882636
-3.9021957	يلم	-0.0882636
-3.9021957	كشفه	-0.0882636
-3.9021957	نديما	-0.0882636
-3.9021957	أَتَأمُرُونَ	-0.0882636
-3.9021957	النَّاسَ	-0.0882636
-3.9021957	بِالبِرِّ	-0.0882636
-3.9021957	وَتَنسَونَ	-0.0882636
-3.9021957	أَنفُسَكُم	-0.0882636
-3.6845112	بلغ	-0.0882636
-3.4118533	المشورة	-0.12986597
-3.9021957	فاستعن	-0.0882636
-3.9021957	بحزم	-0.0882636
-3.9021957	ناصح	-0.0882636
-2.5523183	أو	-0.12240284
-3.9021957	نصيحة	-0.0882636
-3.9021957	حازم	-0.0882636
-3.9021957	صدأ	-0.0882636
-3.9021957	أصقلته	-0.0882636
-3.9021957	شجاعة	-0.0882636
-3.9021957	الشجعان	-0.0882636
-3.9021957	المستشير	-0.0882636
-3.9021957	معان	-0.0882636
-3.9021957	والمستشار	-0.0882636
-3.9021957	مؤتمن	-0.0882636
-3.9021957	المستنير	-0.0882636
-3.5566263	طريق	-0.0882636
-3.9021957	راحة	-0.0882636
-3.9021957	وتعب	-0.0882636
-3.9021957	الهداية	-0.0882636
-3.9021957	لقاح	-0.0882636
-3.9021957	الحزم	-0.0882636
-3.9021957	تعتبر	-0.0882636
-3.9021957	وبالآمال	-0.0882636
-3.9021957	ينتظر	-0.0882636
-3.9021957	المآل	-0.0882636
-3.9021957	وعند	-0.0882636
-3.9021957	جهينة	-0.0882636
-3.9021957	الخبر	-0.0882636
-3.9021957	اليقين	-0.0882636
-3.9021957	خاطر	-0.0882636
-3.9021957	استغنى	-0.0882636
-3.9021957	برأيه	-0.0882636
-3.9021957	شاور	-0.0882636
-3.4118533	الذين	-0.08826357
-3.9021957	يخشون	-0.0882636
-3.9021957	لبيباً	-0.0882636
-3.9021957	تعصه	-0.0882636
-3.9021957	يسبق	-0.08826357
-2.741119	لي	-0.19060516
-3.1445768	وان	-0.12048056
-3.9021957	استغفرت	-0.0882636
-3.4118533	دما	-0.19574325
-3.4118533	يحدث	-0.17714934
-3.2167943	فقدت	-0.31084386
-3.9021957	الإحساس	-0.0882636
-3.5566263	اعضاء	-0.15528032
-3.5566263	جسدي	-0.17587987
-2.5523183	أي	-0.1300146
-3.9021957	شلل	-0.0882636
-3.2167943	مشكلة	-0.29478815
-3.9021957	حاسة	-0.0882636
-3.9021957	الشم	-0.0882636
-3.6845112	تحدث	-0.2273531
-3.9021957	المخاطبة	-0.0882636
-2.937	أعاني	-0.40934372
-3.9021957	قدرة	-0.0882636
-3.9021957	الإبصار	-0.0882636
-3.9021957	الابتلاع	-0.08826357
-3.5566263	اعاني	-0.0882636
-3.9021957	الاتزان	-0.0882636
-2.2307503	<UNK>	-0.15449136
-3.0826735	اصاب	-0.16622141
-3.4118533	بالهلوسة	-0.1931134
-3.9021957	انهيار	-0.0882636
-3.9021957	عصبي	-0.0882636
-3.028503	مشاكل	-0.27018473
-3.9021957	النوم	-0.0882636
-3.9021957	اكتئاب	-0.0882636
-3.0826735	لدي	-0.20084025
-3.6845112	دوران	-0.0882636
-3.5566263	دوخة	-0.23455952
-3.0826735	لست	-0.17306949
-3.5566263	مصاب	-0.12367317
-3.5566263	مجروح	-0.23455952
-3.9021957	اكلت	-0.0882636
-3.3034635	خلال	-0.29002345
-3.6845112	الساعات	-0.15226379
-3.9021957	الثلاث	-0.0882636
-3.4118533	الماضية	-0.29002345
-3.9021957	أصب	-0.0882636
-3.2167943	بكسور	-0.36920464
-3.9021957	العظام	-0.0882636
-3.028503	ليست	-0.19792798
-3.6845112	ديدان	-0.17587987
-3.5566263	بالملاريا	-0.17587987
-3.6845112	درن	-0.2273531
-3.6845112	افهم	-0.0882636
-3.6845112	مصطلح	-0.0882636
-3.9021957	فطق	-0.0882636
-3.5566263	المناعة	-0.23455952
-3.9021957	المكتسبة	-0.08826357
-3.9021957	يقصد	-0.0882636
-3.6845112	بالمصطلح	-0.15226379
-3.9021957	ايدز	-0.0882636
-3.6845112	مصابة	-0.12367317
-3.9021957	بفايروس	-0.0882636
-3.6845112	بالإيدز	-0.0882636
-2.980346	أنا	-0.1295628
-3.5566263	حامل	-0.17587987
-2.937	أربعة	-0.1450498
-3.2167943	أشهر	-0.3161485
-3.3034635	مرتين	-0.24920171
-3.3034635	إني	-0.13535807
-3.2167943	اشعر	-0.18699858
-3.6845112	بألم	-0.13868694
-3.9021957	كبير	-0.0882636
-2.5195599	منذ	-0.19617431
-3.6845112	يومين	-0.0882636
-3.9021957	رجلي	-0.08826357
-3.2167943	اليمنى	-0.5355895
-2.797135	هنا	-0.1905333
-2.980346	مكان	-0.16752242
-3.5566263	الإصابة	-0.11555111
-2.980346	انه	-0.11154633
-3.6845112	انها	-0.0882636
-3.6845112	اصابة	-0.17587987
-3.6845112	سكين	-0.2273531
-3.9021957	وأيضا	-0.0882636
-3.4118533	أنها	-0.15226379
-3.3034635	إصابة	-0.16222814
-3.9021957	حجار	-0.0882636
-2.937	سيارة	-0.34838536
-3.9021957	اني	-0.0882636
-2.7682245	أشعر	-0.2009399
-3.4118533	بالألم	-0.15528032
-3.6845112	المفصل	-0.2273531
-3.2167943	الشخص	-0.10079146
-3.3034635	تسبب	-0.17002046
-3.6845112	إصابتي	-0.0882636
-3.4118533	اعرف	-0.15873766
-3.6845112	الوعي	-0.15226379
-3.9021957	أتنفس	-0.08826357
-3.9021957	وأستنشق	-0.0882636
-3.3034635	هواء	-0.20422938
-3.9021957	ساخنا	-0.0882636
-3.5566263	دخان	-0.15528032
-3.5566263	العضلة	-0.13868694
-3.5566263	الساق	-0.17587987
-3.6845112	اليسرى	-0.08826357
-3.6845112	بشد	-0.2273531
-3.1445768	أستطيع	-0.21368049
-2.5195599	ان	-0.12829278
-3.6845112	أحرك	-0.08826357
-3.1445768	أيضا	-0.1450498
-3.9021957	يداي	-0.0882636
-3.1445768	رأسي	-0.2541943
-3.4118533	أراك	-0.35949823
-3.4118533	بوضوح	-0.35949823
-3.3034635	أعيش	-0.18564372
-3.4118533	بمفردي	-0.24920171
-3.9021957	ديني	-0.0882636
-3.1445768	الإسلام	-0.43615144
-3.9021957	حالتي	-0.0882636
-3.9021957	الاجتماعية	-0.0882636
-3.3034635	متوسطة	-0.45640826
-3.028503	أبناء	-0.2541943
-3.2167943	عدد	-0.11274391
-3.6845112	أبنائي	-0.0882636
-2.797135	خمسة	-0.13817325
-2.8281083	عائلتي	-0.31365043
-3.5566263	تشعر	-0.0882636
-3.5566263	بالأمان	-0.23455952
-3.4118533	أتحدث	-0.12048056
-3.2167943	لغات	-0.18564372
-3.9021957	متعددة	-0.0882636
-3.028503	اللغات	-0.14238726
-3.9021957	أتحدثها	-0.08826357
-2.937	العربية	-0.13422994
-3.0826735	الفرنسية	-0.16545798
-3.2167943	والإنجليزية	-0.27117622
-3.6845112	درجة	-0.0882636
-3.9021957	اتقاني	-0.0882636
-3.5566263	للغات	-0.15226379
-3.4118533	أنهيت	-0.1931134
-3.4118533	دراستي	-0.15226379
-3.9021957	الثانوية	-0.0882636
-3.028503	لقد	-0.12663333
-3.9021957	درست	-0.0882636
-2.937	أربع	-0.3314161
-3.1445768	سنوات	-0.34829974
-3.4118533	الجامعة	-0.15528032
-3.4118533	يعيش	-0.16222814
-2.797135	معي	-0.18048288
-3.6845112	أمي	-0.0882636
-3.9021957	وأبي	-0.0882636
-3.6845112	وأخوتي	-0.2273531
-3.5566263	حصلت	-0.08826357
-3.3034635	شهادة	-0.1338533
-3.9021957	الدكتوراه	-0.0882636
-3.6845112	أنتمي	-0.17587987
-3.1445768	حزب	-0.1931134
-3.9021957	سياسي	-0.0882636
-3.4118533	مدني	-0.17002046
-3.5566263	أشتغل	-0.08826357
-3.9021957	معلما	-0.0882636
-3.6845112	بالجوع	-0.13868694
-3.9021957	والعطش	-0.0882636
-3.9021957	يعيشون	-0.0882636
-2.8614612	أفراد	-0.2138277
-3.9021957	عمري	-0.08826357
-3.1445768	وعشرون	-0.26728287
-3.5566263	عاما	-0.23455952
-3.2167943	سبعة	-0.16222814
-2.7682245	عشر	-0.16398937
-3.9021957	نوفمبر	-0.0882636
-2.7156062	ألف	-1.0127108
-3.4118533	وتسعمئة	-0.1044295
-3.5566263	وواحد	-0.0882636
-2.937	وثمانون	-0.26728287
-2.741119	تونس	-0.46799433
-3.9021957	توزر	-0.0882636
-3.4118533	جنسيته	-0.12367317
-3.4118533	التونسية	-0.35949823
-3.6845112	هل	-0.0882636
-3.9021957	تفهمني	-0.0882636
-3.9021957	إليك	-0.0882636
-3.4118533	محتاج	-0.29002345
-3.5566263	لرعاية	-0.23455952
-3.4118533	صحية	-0.24920171
-3.5566263	بالراحة	-0.23455952
-3.0826735	موعد	-0.19004245
-3.3034635	الساعة	-0.21099526
-3.3034635	السادسة	-0.13868694
-3.6845112	والنصف	-0.0882636
-3.4118533	أكلت	-0.22613366
-2.8975904	البارحة	-0.49956745
-3.028503	خمس	-0.16545798
-3.4118533	دقائق	-0.22222714
-3.1445768	انا	-0.123610824
-3.5566263	مستعد	-0.23455952
-3.2167943	لإجراء	-0.18564372
-3.6845112	المقابلة	-0.2273531
-3.3034635	مخدرات	-0.3161485
-3.5566263	أسلحة	-0.23455952
-3.6845112	بالسيارة	-0.2273531
-3.4118533	المكان	-0.1931134
-3.9021957	أقصده	-0.0882636
-3.5566263	متوجه	-0.17587987
-2.980346	الآن	-0.18544775
-3.028503	مدينة	-0.22457401
-3.6845112	دار	-0.0882636
-3.9021957	البيضاء	-0.0882636
-3.3034635	المدينة	-0.14238726
-3.9021957	المتجه	-0.0882636
-3.3034635	اليها	-0.19574325
-2.6915095	ثلاثة	-0.15721452
-3.4118533	افراد	-0.12986597
-3.4118533	احمل	-0.17002046
-3.028503	أوراق	-0.33983353
-3.9021957	اثبات	-0.0882636
-3.6845112	شخصية	-0.2273531
-3.3034635	لديهم	-0.15528032
-3.9021957	عمل	-0.0882636
-3.5566263	احتاج	-0.19574325
-3.6845112	لمرافق	-0.2273531
-3.4118533	أحمل	-0.12367317
-3.5566263	سلاح	-0.23455952
-3.5566263	لتسجيل	-0.17587987
-3.3034635	السيارة	-0.0882636
-3.5566263	كيلومترات	-0.23455952
-3.3034635	عشرون	-0.13868694
-3.5566263	دقيقة	-0.17587987
-2.7682245	ثلاث	-0.28426152
-3.5566263	للبقاء	-0.18564372
-3.3034635	سأقيم	-0.1540712
-3.2167943	لن	-0.12367317
-3.6845112	أقيم	-0.0882636
-3.9021957	أمشي	-0.0882636
-3.6845112	مشيا	-0.2273531
-3.9021957	الأقدام	-0.0882636
-3.5566263	سأبقى	-0.13868694
-3.2167943	بمدينة	-0.1476592
-3.5566263	طرابلس	-0.23455952
-3.6845112	باتجاه	-0.12986597
-3.6845112	الجنوب	-0.2273531
-3.6845112	لاء	-0.13868694
-3.3034635	يوجد	-0.11721092
-3.4118533	جسر	-0.15528032
-3.4118533	جئت	-0.12986597
-3.1445768	الجنسية	-0.268386
-3.5566263	وسيلة	-0.17587987
-3.4118533	ساعتين	-0.1931134
-2.6263328	هناك	-0.1922828
-3.2167943	حالة	-0.24363564
-3.4118533	وفاة	-0.17002046
-3.6845112	أتعرف	-0.0882636
-3.3034635	شخص	-0.18868454
-3.5566263	عددهم	-0.0882636
-3.3034635	واحدة	-0.13868694
-2.937	فقط	-0.5124431
-3.2167943	مصابين	-0.5355895
-3.4118533	حادث	-0.08826357
-3.2167943	المسؤول	-0.33983353
-3.9021957	كلا	-0.0882636
-3.9021957	فهذا	-0.0882636
-3.6845112	زال	-0.0882636
-3.6845112	يدرس	-0.0882636
-3.2167943	ربع	-0.5355895
-3.9021957	ذهب	-0.0882636
-3.028503	هؤلاء	-0.71168077
-3.3034635	الأطفال	-0.12652041
-3.9021957	الحديقة	-0.0882636
-3.9021957	الطفل	-0.0882636
-3.9021957	الأكبر	-0.0882636
-3.6845112	بمفرده	-0.2273531
-3.5566263	بإمكاني	-0.20422938
-3.5566263	التعرف	-0.23455952
-3.0826735	مرة	-0.18269144
-3.9021957	العكس	-0.0882636
-3.3034635	بشرة	-0.18564372
-3.3034635	بيضاء	-0.3161485
-3.028503	كذلك	-0.12722099
-3.5566263	البشرة	-0.15226379
-3.5566263	لونه	-0.08826357
-3.6845112	فاتح	-0.2273531
-3.5566263	أبيض	-0.17587987
-3.4118533	بالتأكيد	-0.35949823
-3.9021957	للأسف	-0.0882636
-3.6845112	فتاة	-0.08826357
-3.9021957	تملك	-0.0882636
-3.0826735	شعر	-0.16191842
-3.9021957	بوجهها	-0.0882636
-2.937	لهذا	-0.6324461
-3.2167943	لحية	-0.14466876
-3.9021957	أم	-0.0882636
-3.4118533	شوارب	-0.13868694
-3.5566263	ذقن	-0.23455952
-3.6845112	صغيرة	-0.2273531
-3.3034635	لها	-0.13868694
-3.028503	لون	-0.21855082
-3.9021957	للحيتها	-0.0882636
-3.9021957	ولشواربها	-0.0882636
-3.9021957	عينيها	-0.0882636
-3.9021957	خضراوان	-0.0882636
-3.9021957	شعرها	-0.0882636
-3.9021957	أكحل	-0.0882636
-3.2167943	تقريبا	-0.17220847
-3.5566263	نفس	-0.23455952
-3.5566263	طول	-0.15226379
-3.9021957	قامتي	-0.0882636
-3.9021957	بنفس	-0.0882636
-3.6845112	الطول	-0.0882636
-3.4118533	أطول	-0.19574325
-3.5566263	مني	-0.1931134
-3.6845112	أقصر	-0.0882636
-3.2167943	متر	-0.11908581
-3.1445768	سنتيمتر	-0.6025363
-3.6845112	امرأة	-0.17587987
-3.6845112	رقم	-0.15226379
-3.9021957	تلفونه	-0.0882636
-3.9021957	جنسيتها	-0.0882636
-3.2167943	تونسية	-0.36920464
-3.9021957	ديانتها	-0.0882636
-3.5566263	قضى	-0.0882636
-3.4118533	بالتعليم	-0.35949823
-3.6845112	الجامعي	-0.11555111
-3.5566263	حصل	-0.17587987
-3.9021957	مهندس	-0.0882636
-3.9021957	الإعلامية	-0.0882636
-3.3034635	يتحدث	-0.12367317
-3.0826735	اللغة	-0.22458543
-3.5566263	الإسبانية	-0.15226379
-3.4118533	واللغة	-0.15226379
-3.5566263	الألمانية	-0.13868694
-3.3034635	الإنجليزية	-0.12986597
-3.9021957	بصيغة	-0.0882636
-2.980346	جيدة	-0.7574383
-3.2167943	لديه	-0.11908581
-3.9021957	طفل	-0.0882636
-3.9021957	حالته	-0.08826357
-3.9021957	الزوجية	-0.0882636
-3.9021957	وثلاثين	-0.0882636
-2.6469903	سنة	-0.39686176
-3.4118533	ولد	-0.11046053
-3.5566263	سبعين	-0.17587987
-3.9021957	وتسعمائة	-0.0882636
-3.6845112	وألف	-0.2273531
-3.1445768	وعشرين	-0.11908581
-3.9021957	جانتي	-0.0882636
-3.6845112	بتونس	-0.2273531
-3.4118533	يقيم	-0.16222814
-3.9021957	بسوسة	-0.0882636
-3.9021957	شكل	-0.0882636
-3.5566263	بنية	-0.17587987
-3.1445768	متوسط	-0.3777906
-3.6845112	الحجم	-0.17587987
-3.6845112	نبرة	-0.0882636
-3.9021957	صوته	-0.0882636
-3.9021957	رقيقة	-0.0882636
-3.9021957	خافتة	-0.0882636
-3.5566263	يقع	-0.0882636
-3.9021957	الخدش	-0.0882636
-3.1445768	نوع	-0.22222714
-3.9021957	باسات	-0.0882636
-3.6845112	قابلت	-0.17587987
-3.9021957	محطة	-0.0882636
-3.5566263	القطار	-0.23455952
-3.4118533	آخر	-0.19574325
-2.980346	فيها	-0.08826357
-2.8614612	جيدا	-0.3536222
-3.3034635	متأكد	-0.13868694
-3.0826735	أنه	-0.24575736
-3.4118533	بخير	-0.17002046
-3.9021957	وعليك	-0.0882636
-3.5566263	السلام	-0.15226379
-3.9021957	ورحمة	-0.0882636
-3.9021957	وبركاته	-0.0882636
-3.4118533	ايضا	-0.1931134
-3.9021957	ممكن	-0.0882636
-3.9021957	شراءه	-0.0882636
-3.3034635	يمكنني	-0.18269144
-3.6845112	شراء	-0.15226379
-3.9021957	الشيء	-0.08826357
-3.2167943	سوسة	-0.43615144
-3.9021957	آخرين	-0.08826357
-3.5566263	كيفية	-0.23455952
-3.9021957	استخدامها	-0.0882636
-3.4118533	بالطبع	-0.12722099
-3.3034635	سبق	-0.1450498
-3.5566263	استخدمتها	-0.1931134
-3.5566263	أعلم	-0.15528032
-3.5566263	ماهي	-0.15226379
-3.3034635	شيئا	-0.12986597
-3.5566263	كهذا	-0.1931134
-3.4118533	اشتريته	-0.17320669
-3.6845112	أزرق	-0.2273531
-3.6845112	اشتريت	-0.17587987
-3.9021957	محل	-0.0882636
-3.9021957	عطورات	-0.0882636
-3.4118533	بالأمس	-0.29002345
-3.4118533	مضى	-0.15226379
-3.9021957	يسرق	-0.0882636
-3.5566263	قمت	-0.17587987
-3.6845112	بزيارة	-0.17587987
-3.5566263	الطبيب	-0.13868694
-2.980346	حاليا	-0.31051117
-3.4118533	المرض	-0.1540712
-2.937	مرض	-0.18393074
-3.4118533	السكري	-0.22222714
-3.0826735	حساسية	-0.22115551
-3.3034635	الدواء	-0.13177347
-3.9021957	انالكون	-0.0882636
-3.5566263	سيء	-0.0882636
-3.6845112	ضد	-0.0882636
-3.2167943	أدوية	-0.12367317
-3.6845112	معينة	-0.17587987
-3.9021957	افيرالكون	-0.0882636
-3.5566263	أتعاطى	-0.12986597
-3.9021957	أجريت	-0.0882636
-3.1445768	عملية	-0.31051117
-3.9021957	أجر	-0.0882636
-3.9021957	أدخل	-0.0882636
-3.3034635	المستشفى	-0.31084386
-3.4118533	وزني	-0.13868694
-3.6845112	ثمان	-0.0882636
-2.980346	وسبعون	-0.38193834
-3.4118533	كيلوغرام	-0.35949823
-3.6845112	طولي	-0.17587987
-3.9021957	وخمس	-0.0882636
-3.1445768	أدخن	-0.17372116
-3.5566263	مرات	-0.23455952
-3.5566263	استهلك	-0.0882636
-3.9021957	علبتين	-0.0882636
-3.5566263	باليوم	-0.23455952
-3.9021957	الطفولة	-0.0882636
-3.6845112	وانا	-0.0882636
-3.9021957	آخرون	-0.0882636
-3.9021957	يدخنون	-0.0882636
-2.980346	حدث	-0.22336099
-3.9021957	وتوقفت	-0.0882636
-3.9021957	التدخين	-0.08826357
-3.5566263	المدة	-0.13868694
-3.4118533	توقفت	-0.35949823
-3.9021957	الصيف	-0.0882636
-3.3034635	الخمور	-0.17002046
-3.6845112	اعتقد	-0.0882636
-3.4118533	أني	-0.0882636
-3.2167943	يمكن	-0.17220847
-3.5566263	الاستغناء	-0.15226379
-3.6845112	المخدرات	-0.0882636
-3.3034635	تصيبني	-0.23042695
-3.6845112	وأشعر	-0.17587987
-3.6845112	بأني	-0.17587987
-3.9021957	اريد	-0.0882636
-3.6845112	حك	-0.2273531
-3.9021957	جلدي	-0.0882636
-3.5566263	كسور	-0.17002046
-3.9021957	الجسم	-0.0882636
-3.5566263	أوجاع	-0.23455952
-3.9021957	عضلاتي	-0.08826357
-3.6845112	ضعف	-0.2273531
-3.028503	ألم	-0.20872824
-3.9021957	مضاعف	-0.0882636
-3.9021957	واحتقان	-0.0882636
-3.9021957	فقر	-0.0882636
-3.3034635	الدم	-0.17002046
-3.3034635	نزيف	-0.18564372
-2.937	دم	-0.49780095
-3.9021957	السكر	-0.0882636
-3.6845112	الغدة	-0.08826357
-3.5566263	الدرقية	-0.15226379
-3.4118533	أتبول	-0.2273531
-3.9021957	بتكرار	-0.0882636
-3.9021957	معتاد	-0.0882636
-3.9021957	كليتي	-0.08826357
-3.9021957	بحرقان	-0.0882636
-3.9021957	بولي	-0.0882636
-3.9021957	رعشة	-0.0882636
-3.6845112	حمى	-0.17587987
-3.0826735	عندي	-0.10560759
-3.9021957	الصداع	-0.0882636
-3.4118533	تشنجات	-0.1931134
-3.3034635	فقدان	-0.15226379
-3.6845112	ازدواجية	-0.2273531
-3.9021957	النظر	-0.0882636
-3.9021957	السمع	-0.0882636
-3.6845112	بأذني	-0.2273531
-3.5566263	رشح	-0.23455952
-3.6845112	بالأنف	-0.2273531
-3.6845112	الإسلامية	-0.2273531
-3.9021957	حسنا	-0.0882636
-3.9021957	والانكليزية	-0.0882636
-3.6845112	إتقاني	-0.17587987
-2.980346	حوالي	-0.12652041
-3.9021957	ثمانون	-0.0882636
-3.6845112	بالمئة	-0.2273531
-3.9021957	السنوات	-0.0882636
-3.9021957	درستها	-0.0882636
-3.2167943	بالجامعة	-0.15226379
-3.9021957	زميلاتي	-0.0882636
-3.9021957	أعلى	-0.0882636
-3.9021957	البكالوريا	-0.0882636
-3.9021957	ألفين	-0.0882636
-3.5566263	واثنين	-0.08826357
-3.9021957	مدنية	-0.0882636
-3.9021957	وعسكرية	-0.0882636
-3.6845112	تلميذة	-0.0882636
-3.9021957	بالأكاديمية	-0.0882636
-3.6845112	العسكرية	-0.2273531
-3.6845112	العطش	-0.0882636
-3.6845112	فأنا	-0.0882636
-3.9021957	أمان	-0.0882636
-3.9021957	اربعة	-0.0882636
-3.3034635	اثنين	-0.13868694
-3.6845112	الثالث	-0.2273531
-3.5566263	أوت	-0.15226379
-3.2167943	وثمانين	-0.5355895
-3.9021957	جندوبة	-0.0882636
-3.6845112	جيوب	-0.17587987
-3.9021957	أنفية	-0.0882636
-3.9021957	أسناني	-0.0882636
-3.6845112	بالحلق	-0.2273531
-3.6845112	اللمفاوية	-0.2273531
-3.9021957	قصور	-0.0882636
-3.6845112	بالتنفس	-0.2273531
-3.6845112	الكحة	-0.12986597
-3.6845112	أبصق	-0.08826357
-3.6845112	بلغما	-0.2273531
-3.4118533	هنالك	-0.0882636
-3.9021957	اللعاب	-0.0882636
-3.6845112	مصابا	-0.0882636
-3.3034635	بالبحة	-0.45640826
-3.5566263	التنفس	-0.08826357
-3.3034635	بالتهاب	-0.29002345
-3.2167943	الشعب	-0.12986597
-3.9021957	الهوائية	-0.0882636
-3.3034635	الرئوي	-0.45640826
-3.6845112	الحاد	-0.2273531
-3.2167943	اصبت	-0.16847564
-3.5566263	بالدرن	-0.1931134
-3.9021957	الصدر	-0.0882636
-3.3034635	بدقات	-0.45640826
-3.9021957	سريعة	-0.0882636
-3.6845112	بضيق	-0.2273531
-3.9021957	ورم	-0.0882636
-3.9021957	الساقين	-0.0882636
-3.5566263	ضغط	-0.17587987
-3.2167943	أفقد	-0.38032064
-3.9021957	بدوخة	-0.0882636
-3.5566263	بالرغبة	-0.23455952
-3.9021957	الاستفراغ	-0.0882636
-3.9021957	محتمل	-0.0882636
-3.6845112	اسهال	-0.2273531
-3.9021957	بحموضة	-0.0882636
-3.9021957	البراز	-0.0882636
-3.6845112	بالصفراء	-0.2273531
-3.5566263	بالكبد	-0.17587987
-3.5566263	استفرغت	-0.1931134
-3.6845112	بشلل	-0.17587987
-3.9021957	إبصاري	-0.0882636
-3.9021957	بالهلواس	-0.0882636
-3.4118533	بالانهيار	-0.35949823
-3.9021957	العصبي	-0.0882636
-3.9021957	الاكتئاب	-0.0882636
-3.6845112	دوار	-0.0882636
-3.9021957	أدوخني	-0.0882636
-3.6845112	ولست	-0.0882636
-3.9021957	مجروحة	-0.0882636
-3.6845112	الثلاثة	-0.0882636
-3.4118533	يدي	-0.1931134
-3.9021957	وساقي	-0.0882636
-3.9021957	أصيبا	-0.0882636
-3.4118533	أفهمك	-0.15528032
-3.6845112	تذكر	-0.2273531
-3.4118533	المصطلح	-0.1931134
-3.9021957	تقصد	-0.0882636
-3.9021957	أيدز	-0.0882636
-3.6845112	بفيروس	-0.17587987
-3.9021957	مضت	-0.0882636
-3.3034635	الحمل	-0.20422938
-3.5566263	بالآلام	-0.1931134
-3.6845112	أشير	-0.0882636
-3.9021957	الآلام	-0.0882636
-3.6845112	حجارة	-0.2273531
-3.9021957	الصدمة	-0.0882636
-3.9021957	تنفست	-0.0882636
-3.9021957	ساخن	-0.0882636
-3.6845112	عضلة	-0.0882636
-3.9021957	تحريك	-0.0882636
-3.9021957	تتحدث	-0.0882636
-3.5566263	بالحاجة	-0.23455952
-3.6845112	الذهاب	-0.2273531
-3.6845112	دورة	-0.2273531
-3.6845112	المياه	-0.17587987
-3.9021957	موعدي	-0.0882636
-3.6845112	الخامسة	-0.15226379
-3.5566263	مساء	-0.17587987
-3.6845112	بالانتظار	-0.12986597
-3.9021957	وأسلحة	-0.0882636
-3.4118533	موقع	-0.35949823
-3.9021957	صقلية	-0.0882636
-3.6845112	مرسيليا	-0.2273531
-3.9021957	سأصطحب	-0.0882636
-3.4118533	الأفراد	-0.1931134
-3.9021957	اصطحبهم	-0.0882636
-3.9021957	سأكون	-0.0882636
-3.5566263	سلاحا	-0.23455952
-3.9021957	رسمية	-0.0882636
-3.5566263	سيارتي	-0.17587987
-3.6845112	تبعد	-0.0882636
-3.9021957	سأستغرق	-0.0882636
-3.9021957	الزمن	-0.0882636
-3.3034635	للوصول	-0.45640826
-3.4118533	ست	-0.15226379
-3.3034635	ساعات	-0.21892361
-3.5566263	عبر	-0.08826357
-3.5566263	الطائرة	-0.23455952
-3.9021957	كاليفورنيا	-0.0882636
-3.9021957	المحطة	-0.0882636
-3.6845112	الرابعة	-0.08826357
-3.4118533	صباحا	-0.35949823
-3.9021957	مواصلات	-0.0882636
-3.9021957	ارى	-0.0882636
-3.9021957	متورطين	-0.0882636
-3.5566263	الحادث	-0.15528032
-3.9021957	حالتين	-0.0882636
-3.6845112	كم	-0.0882636
-3.3034635	الوقت	-0.0882636
-3.5566263	مر	-0.13868694
-3.6845112	أولياء	-0.0882636
-3.9021957	مصاحبين	-0.0882636
-3.5566263	لهم	-0.0882636
-3.5566263	أين	-0.15226379
-3.5566263	بمفردهم	-0.1931134
-3.4118533	أخرى	-0.12986597
-3.2167943	سوداء	-0.37414044
-3.5566263	بني	-0.19574325
-3.6845112	البشر	-0.2273531
-3.9021957	قاتمة	-0.0882636
-3.9021957	بوجهه	-0.08826357
-3.4118533	يملك	-0.12367317
-3.9021957	وشوارب	-0.0882636
-3.6845112	عينيه	-0.0882636
-3.6845112	شعره	-0.17587987
-3.1445768	أسود	-0.6025363
-3.3034635	مئة	-0.13868694
-3.4118533	رجل	-0.13868694
-3.9021957	تلفون	-0.0882636
-3.9021957	تونسي	-0.0882636
-3.5566263	ديانته	-0.13868694
-3.9021957	قضاها	-0.0882636
-3.5566263	تحصل	-0.15226379
-3.5566263	الأستاذية	-0.23455952
-3.9021957	الرياضيات	-0.0882636
-3.5566263	يتقن	-0.0882636
-3.5566263	الأخرى	-0.15226379
-3.9021957	عمر	-0.0882636
-3.1445768	اثنان	-0.2442659
-3.3034635	العام	-0.13868694
-3.9021957	واثنان	-0.08826357
-3.6845112	ميلاد	-0.2273531
-3.4118533	ثمانية	-0.0882636
-3.4118533	البلد	-0.12367317
-3.4118533	يعمل	-0.17587987
-3.9021957	رئيسا	-0.0882636
-3.5566263	بالعمل	-0.1931134
-3.6845112	ممتلئ	-0.2273531
-3.6845112	طويل	-0.0882636
-3.9021957	القامة	-0.0882636
-3.6845112	حادة	-0.17587987
-3.4118533	جدا	-0.1931134
-3.9021957	عالية	-0.0882636
-3.6845112	عصبية	-0.0882636
-3.5566263	مميزة	-0.23455952
-3.6845112	علامات	-0.0882636
-3.9021957	العلامة	-0.0882636
-3.9021957	رنوكليو	-0.0882636
-3.9021957	أخذك	-0.0882636
-3.9021957	شخصا	-0.0882636
-3.9021957	وله	-0.0882636
-3.6845112	صلة	-0.2273531
-3.5566263	رأيته	-0.13868694
-3.9021957	بيته	-0.0882636
-3.6845112	أجل	-0.08826357
-3.2167943	شكرا	-0.1540712
-3.9021957	وعليكم	-0.0882636
-3.5566263	كيف	-0.08826357
-3.9021957	استخدمها	-0.0882636
-3.6845112	شاهدت	-0.08826357
-3.6845112	سرقته	-0.2273531
-3.5566263	أخضر	-0.17587987
-3.6845112	السوق	-0.0882636
-3.4118533	سرق	-0.19574325
-3.6845112	الشهر	-0.2273531
-3.5566263	الفارط	-0.23455952
-3.5566263	الأمراض	-0.19574325
-3.9021957	المتوارثة	-0.0882636
-3.9021957	السمنة	-0.0882636
-3.6845112	تسببت	-0.2273531
-3.5566263	لأدوية	-0.1931134
-3.4118533	الأدوية	-0.16222814
-3.5566263	منها	-0.0882636
-3.9021957	لانلكو	-0.0882636
-3.9021957	ليفيرلكو	-0.0882636
-3.9021957	الرد	-0.0882636
-3.6845112	السيء	-0.2273531
-3.6845112	علي	-0.0882636
-3.9021957	الاسبيجيك	-0.0882636
-3.6845112	تحت	-0.2273531
-3.6845112	نظام	-0.0882636
-3.9021957	علاج	-0.0882636
-3.9021957	معين	-0.0882636
-3.9021957	أتعاطاه	-0.0882636
-3.5566263	سباسفون	-0.08826357
-3.4118533	احتجت	-0.17002046
-3.1445768	عانيت	-0.3777906
-3.9021957	وأدى	-0.0882636
-3.6845112	إجراء	-0.17587987
-3.9021957	العملية	-0.0882636
-3.5566263	كسر	-0.17587987
-3.5566263	اضطررت	-0.17587987
-3.5566263	لدخول	-0.23455952
-3.9021957	سبع	-0.0882636
-3.4118533	وخمسون	-0.15226379
-3.9021957	كيلو	-0.0882636
-3.9021957	غرام	-0.0882636
-3.9021957	وست	-0.0882636
-3.2167943	وستون	-0.17587987
-3.5566263	دخنت	-0.17587987
-3.4118533	علبة	-0.17002046
-3.1445768	عام	-0.32916814
-3.6845112	انقطعت	-0.08826357
-3.5566263	أسبوعان	-0.17587987
-3.5566263	أشرب	-0.1931134
-3.9021957	مشروبات	-0.0882636
-3.5566263	أعتقد	-0.17587987
-3.9021957	للاستغناء	-0.0882636
-3.9021957	الكحوليات	-0.0882636
-3.3034635	المشروبات	-0.45640826
-3.9021957	الكحولية	-0.0882636
-3.6845112	جزءا	-0.08826357
-3.9021957	أساسيا	-0.0882636
-3.6845112	حياتي	-0.17587987
-3.9021957	اليومي	-0.0882636
-3.9021957	تصبني	-0.0882636
-3.6845112	أريد	-0.2273531
-3.6845112	حدثت	-0.2273531
-3.5566263	جسمي	-0.15226379
-3.9021957	احتقان	-0.0882636
-3.9021957	ونزيف	-0.0882636
-3.9021957	حصوة	-0.0882636
-3.6845112	الكلى	-0.2273531
-3.9021957	ودوخة	-0.0882636
-3.9021957	أسنان	-0.0882636
-3.9021957	الكح	-0.0882636
-3.4118533	ابصق	-0.0882636
-3.5566263	بلغم	-0.23455952
-3.4118533	أصاب	-0.12986597
-3.6845112	بالبح	-0.2273531
-3.9021957	مشكل	-0.0882636
-3.5566263	او	-0.08826357
-3.6845112	التهاب	-0.0882636
-3.9021957	رئوية	-0.0882636
-3.9021957	بألآم	-0.0882636
-3.6845112	بقليل	-0.0882636
-3.9021957	الضيق	-0.0882636
-2.8281083	بعض	-0.16934402
-3.9021957	الأوقات	-0.08826357
-3.9021957	بحموض	-0.0882636
-3.9021957	أستشر	-0.0882636
-3.9021957	طبيبا	-0.0882636
-3.028503	أبدا	-0.34134442
-3.9021957	لأنني	-0.0882636
-3.9021957	ممرضة	-0.0882636
-3.9021957	أتعرض	-0.0882636
-3.2167943	والحمد	-0.5355895
-3.9021957	تعرضت	-0.0882636
-3.9021957	نزلة	-0.0882636
-3.9021957	برد	-0.0882636
-3.6845112	ببلد	-0.0882636
-3.6845112	أحسن	-0.0882636
-3.9021957	لغتها	-0.0882636
-2.937	الى	-0.11046053
-3.9021957	الحنجرة	-0.0882636
-3.6845112	الأناس	-0.2273531
-3.9021957	يصابون	-0.0882636
-2.980346	بهذا	-0.23444203
-3.5566263	لأن	-0.0882636
-3.6845112	عادة	-0.2273531
-3.9021957	يكونون	-0.0882636
-3.9021957	متقدمين	-0.0882636
-3.9021957	السن	-0.0882636
-3.5566263	أكون	-0.08826357
-3.9021957	غاية	-0.0882636
-3.9021957	التعب	-0.0882636
-3.9021957	ركوب	-0.0882636
-3.6845112	القليلة	-0.0882636
-3.9021957	أمعائي	-0.0882636
-3.3034635	أصبت	-0.11046053
-3.6845112	زرت	-0.08826357
-3.9021957	كمبوديا	-0.0882636
-3.9021957	اشتهر	-0.0882636
-3.9021957	الأعوام	-0.0882636
-3.6845112	الأخيرة	-0.2273531
-3.6845112	يصاب	-0.0882636
-3.9021957	يفقد	-0.0882636
-3.9021957	حياته	-0.0882636
-3.6845112	خطير	-0.0882636
-3.9021957	والذي	-0.0882636
-3.6845112	أسابيع	-0.2273531
-3.3034635	بآلام	-0.22222714
-3.9021957	يزيد	-0.0882636
-3.6845112	فخذي	-0.2273531
-3.9021957	لمكان	-0.0882636
-2.980346	الألم	-0.16627876
-3.9021957	اصطدام	-0.0882636
-3.3034635	ولم	-0.0882636
-3.6845112	استنشق	-0.2273531
-3.6845112	الآم	-0.0882636
-3.6845112	ديانتي	-0.17587987
-3.6845112	عزباء	-0.2273531
-3.9021957	ابناء	-0.0882636
-3.9021957	تلك	-0.0882636
-3.9021957	بإتقان	-0.0882636
-3.9021957	انهيت	-0.0882636
-3.6845112	قضيت	-0.12986597
-3.9021957	بالدراسة	-0.0882636
-3.6845112	الجامعية	-0.2273531
-3.6845112	تعيش	-0.0882636
-3.5566263	تحصلت	-0.17587987
-3.9021957	الوظيفة	-0.0882636
-3.9021957	أشغلها	-0.0882636
-3.9021957	معلم	-0.0882636
-3.9021957	بقيتها	-0.0882636
-3.6845112	المنصب	-0.13868694
-3.5566263	بالعطش	-0.1931134
-3.9021957	والجوع	-0.0882636
-3.6845112	تاريخ	-0.0882636
-3.9021957	ميلادي	-0.0882636
-3.6845112	أكتوبر	-0.2273531
-3.9021957	وثلاث	-0.0882636
-3.4118533	السنة	-0.15226379
-3.3034635	ولدت	-0.11274391
-3.6845112	اسمها	-0.0882636
-3.1445768	بنزرت	-0.6025363
-3.9021957	جنسيتي	-0.0882636
-3.2167943	قليلا	-0.36920464
-3.9021957	أحتاج	-0.08826357
-3.9021957	أبقى	-0.0882636
-3.0826735	كثيرا	-0.24918903
-3.9021957	تطاوين	-0.0882636
-3.4118533	المنطقة	-0.18564372
-3.9021957	أتوجه	-0.0882636
-3.9021957	ارمادا	-0.0882636
-3.6845112	أتجه	-0.0882636
-3.5566263	أصطحب	-0.15226379
-3.6845112	البتة	-0.2273531
-3.9021957	سأقابل	-0.0882636
-3.6845112	ستمئة	-0.0882636
-3.4118533	كيلومتر	-0.35949823
-3.3034635	ستة	-0.12367317
-3.4118533	أسبوعا	-0.0882636
-3.6845112	واحدا	-0.2273531
-3.9021957	لأبقى	-0.0882636
-3.6845112	ابن	-0.08826357
-3.9021957	خالتي	-0.0882636
-3.9021957	عمي	-0.0882636
-3.9021957	وابن	-0.0882636
-3.9021957	استغرقت	-0.0882636
-3.6845112	السفر	-0.0882636
-3.9021957	ونصف	-0.0882636
-3.6845112	وصلت	-0.12986597
-3.6845112	الشرق	-0.2273531
-3.9021957	رسوم	-0.0882636
-3.9021957	الجزائر	-0.0882636
-3.6845112	بدأت	-0.17587987
-3.9021957	الهاتف	-0.0882636
-3.9021957	الجوال	-0.0882636
-3.4118533	الأشخاص	-0.19574325
-3.9021957	تورطوا	-0.0882636
-3.6845112	سائق	-0.2273531
-3.9021957	الشاحنة	-0.0882636
-3.6845112	المتورطين	-0.2273531
-3.3034635	حالات	-0.19574325
-3.5566263	الوفاة	-0.17002046
-3.9021957	هما	-0.0882636
-3.5566263	المصابين	-0.0882636
-3.9021957	المسافرين	-0.0882636
-3.6845112	صباح	-0.2273531
-3.6845112	أنهى	-0.17587987
-3.3034635	تعليمه	-0.45640826
-3.4118533	سنتين	-0.0882636
-3.9021957	الأقل	-0.0882636
-3.6845112	الحقيقة	-0.0882636
-3.9021957	الموضوع	-0.0882636
-3.9021957	انهم	-0.0882636
-3.9021957	أخر	-0.0882636
-3.9021957	الطريق	-0.0882636
-3.9021957	اليسار	-0.0882636
-3.9021957	تماما	-0.0882636
-3.6845112	فاتحة	-0.2273531
-3.9021957	بطبيعة	-0.0882636
-3.9021957	الحال	-0.0882636
-3.9021957	أصلع	-0.0882636
-3.3034635	لدى	-0.29002345
-3.6845112	لحيته	-0.11908581
-3.6845112	وشواربه	-0.0882636
-3.6845112	يلون	-0.0882636
-3.9021957	خضراوين	-0.0882636
-3.9021957	أصفر	-0.0882636
-3.6845112	اللون	-0.2273531
-3.9021957	جهامة	-0.0882636
-3.9021957	طبعا	-0.0882636
-3.6845112	وتسعين	-0.0882636
-3.9021957	رجلا	-0.0882636
-3.5566263	جنسية	-0.08826357
-3.9021957	أثناء	-0.0882636
-3.2167943	اي	-0.0882636
-3.9021957	لاميتريز	-0.0882636
-3.5566263	والفرنسية	-0.12367317
-3.9021957	والاسبانية	-0.0882636
-3.9021957	الإنكليزية	-0.0882636
-3.6845112	أدري	-0.08826357
-3.5566263	متزوج	-0.23455952
-3.9021957	تسع	-0.0882636
-3.5566263	وخمسة	-0.08826357
-3.6845112	وولد	-0.0882636
-3.5566263	وسبعين	-0.23455952
-3.5566263	فرنسا	-0.23455952
-3.4118533	رئيسي	-0.23455952
-3.9021957	صوت	-0.0882636
-3.9021957	المقهى	-0.0882636
-3.6845112	الهوارية	-0.2273531
-3.6845112	أعرفه	-0.0882636
-3.9021957	حالي	-0.0882636
-3.5566263	عليكم	-0.08826357
-3.9021957	أتمنى	-0.0882636
-3.9021957	برقة	-0.0882636
-3.6845112	أسرقه	-0.17587987
-3.6845112	قليبية	-0.0882636
-3.9021957	قرب	-0.0882636
-3.9021957	الجمعة	-0.0882636
-3.9021957	مسروق	-0.0882636
-3.9021957	لدينا	-0.0882636
-3.4118533	أمراض	-0.0882636
-3.6845112	متوارثة	-0.2273531
-3.5566263	العائلة	-0.1931134
-3.6845112	توجد	-0.08826357
-3.9021957	عائلتنا	-0.0882636
-3.9021957	اية	-0.0882636
-3.5566263	لأي	-0.17587987
-3.5566263	أية	-0.08826357
-3.9021957	أحتج	-0.08826357
-3.9021957	أجري	-0.0882636
-3.9021957	أضطر	-0.0882636
-3.9021957	دخول	-0.0882636
-3.9021957	خفيفة	-0.0882636
-3.9021957	سبعون	-0.0882636
-3.5566263	كيلوغراما	-0.23455952
-3.6845112	وأربعة	-0.2273531
-3.6845112	يدخن	-0.17587987
-3.4118533	لمدة	-0.0882636
-3.5566263	عنه	-0.08826357
-3.9021957	تمثل	-0.0882636
-3.3034635	جزء	-0.29002345
-3.5566263	أساسي	-0.17587987
-3.6845112	أحس	-0.0882636
-3.9021957	بحساسية	-0.0882636
-3.9021957	بالكلى	-0.0882636
-3.9021957	بتشنجات	-0.0882636
-3.9021957	الديانة	-0.0882636
-3.9021957	بالأمن	-0.0882636
-3.3034635	والإسبانية	-0.29002345
-3.9021957	أتقاني	-0.0882636
-3.4118533	جيد	-0.15226379
-3.9021957	اتممت	-0.0882636
-3.6845112	أبي	-0.08826357
-3.9021957	وأمي	-0.0882636
-3.6845112	الحزب	-0.08826357
-3.6845112	الدستوري	-0.2273531
-3.6845112	الديمقراطي	-0.2273531
-3.6845112	مدرسا	-0.0882636
-3.9021957	ولادتي	-0.08826357
-3.9021957	وإثنين	-0.0882636
-3.9021957	بأريانا	-0.0882636
-3.9021957	اريانا	-0.0882636
-3.6845112	الحلق	-0.0882636
-3.4118533	أحيانا	-0.0882636
-3.6845112	لعاب	-0.0882636
-3.9021957	تنتابني	-0.0882636
-3.9021957	بته	-0.0882636
-3.9021957	بالصدر	-0.0882636
-3.9021957	أعدو	-0.0882636
-3.9021957	البعض	-0.0882636
-3.9021957	اعمل	-0.0882636
-3.9021957	ينتابني	-0.0882636
-3.5566263	أصيب	-0.08826357
-3.9021957	بجروح	-0.0882636
-3.9021957	أذكر	-0.0882636
-3.6845112	بحامل	-0.2273531
-3.9021957	اسبوعين	-0.0882636
-3.9021957	الركبة	-0.0882636
-3.6845112	الاصابة	-0.2273531
-3.9021957	واستنشقت	-0.0882636
-3.9021957	الدين	-0.0882636
-3.6845112	الإسلامي	-0.2273531
-3.9021957	أتقن	-0.08826357
-3.9021957	أتممت	-0.0882636
-3.9021957	دراستها	-0.0882636
-3.9021957	بصحبة	-0.0882636
-3.9021957	أصدقائي	-0.0882636
-3.9021957	دراسية	-0.08826357
-3.4118533	عليها	-0.0882636
-3.9021957	أشتغلها	-0.0882636
-3.6845112	ضبط	-0.0882636
-3.6845112	إحدى	-0.0882636
-3.5566263	فردا	-0.08826357
-3.5566263	اسم	-0.15226379
-3.9021957	باجة	-0.0882636
-3.6845112	رعاية	-0.2273531
-3.5566263	مساءا	-0.23455952
-3.6845112	وثلاثون	-0.0882636
-3.9021957	المحاد	-0.0882636
-3.6845112	السابعة	-0.0882636
-3.9021957	آلاف	-0.0882636
-3.9021957	انتظرت	-0.0882636
-3.9021957	مستعدا	-0.08826357
-3.5566263	باريس	-0.23455952
-3.9021957	كرومبيليار	-0.0882636
-3.6845112	كيلومترا	-0.0882636
-3.9021957	أتوقع	-0.0882636
-3.9021957	كاملا	-0.0882636
-3.9021957	الإطلاق	-0.0882636
-3.4118533	أسبوع	-0.1931134
-3.9021957	باستعمال	-0.0882636
-3.9021957	برا	-0.0882636
-3.9021957	مدنين	-0.0882636
-3.6845112	تقع	-0.0882636
-3.9021957	شمالا	-0.0882636
-3.4118533	أظن	-0.14466876
-3.5566263	ليبيا	-0.17587987
-3.9021957	سأحمل	-0.0882636
-3.9021957	تعرفت	-0.0882636
-3.9021957	سيدة	-0.0882636
-3.9021957	حالتا	-0.0882636
-3.5566263	والدي	-0.08826357
-3.9021957	أخبرتك	-0.0882636
-3.6845112	ساعتان	-0.2273531
-3.9021957	إنهم	-0.0882636
-3.9021957	جيراني	-0.0882636
-3.9021957	مهما	-0.0882636
-3.6845112	أراه	-0.0882636
-3.9021957	لحيه	-0.0882636
-3.9021957	لونا	-0.0882636
-3.9021957	سوداوين	-0.0882636
-3.9021957	العلوم	-0.0882636
-3.9021957	القانونية	-0.0882636
-3.9021957	والسياسية	-0.0882636
-3.9021957	والاجتماعية	-0.0882636
-3.5566263	عدة	-0.17587987
-3.9021957	يتحدثها	-0.0882636
-3.6845112	الانجليزية	-0.08826357
-3.6845112	والعربية	-0.08826357
-3.9021957	إتقانه	-0.0882636
-3.6845112	لهذه	-0.2273531
-3.9021957	بنسبة	-0.0882636
-3.9021957	ستون	-0.0882636
-3.9021957	وثمان	-0.0882636
-3.5566263	سبتمبر	-0.23455952
-3.9021957	جسد	-0.0882636
-3.4118533	خدوش	-0.35949823
-3.6845112	يمتلك	-0.17587987
-3.9021957	مرسيدس	-0.0882636
-3.9021957	آخذك	-0.0882636
-3.6845112	معه	-0.17587987
-3.9021957	الماضي	-0.0882636
-3.9021957	أمام	-0.0882636
-3.9021957	المنزل	-0.0882636
-3.9021957	متأكدا	-0.0882636
-3.6845112	شراءها	-0.0882636
-3.9021957	الهدية	-0.0882636
-3.9021957	باليرمو	-0.0882636
-3.9021957	أشتريه	-0.0882636
-3.9021957	أره	-0.0882636
-3.9021957	اين	-0.0882636
-3.9021957	كانت	-0.0882636
-3.6845112	السرطان	-0.17587987
-3.6845112	الحمى	-0.0882636
-3.6845112	الزكام	-0.2273531
-3.5566263	الحساسية	-0.12986597
-3.5566263	لبعض	-0.17587987
-3.9021957	الفعل	-0.0882636
-3.9021957	الانالكون	-0.0882636
-3.9021957	تمزق	-0.0882636
-3.6845112	عضلي	-0.0882636
-3.9021957	ادى	-0.0882636
-3.9021957	اضطربت	-0.0882636
-3.9021957	وسبعة	-0.0882636
-3.9021957	النركيلة	-0.0882636
-3.6845112	انقطع	-0.0882636
-3.9021957	بتاتا	-0.0882636
-3.9021957	<UNK>ألف	-0.0882636
-3.5566263	وثمانية	-0.08826357
-3.6845112	الكحول	-0.0882636
-3.9021957	بأهمية	-0.0882636
-3.9021957	كبرى	-0.0882636
-3.9021957	أساسية	-0.0882636
-3.9021957	الفترات	-0.0882636
-3.9021957	اوجاع	-0.0882636
-3.9021957	وأدوخه	-0.0882636
-3.6845112	الغدد	-0.08826357
-3.6845112	لعابا	-0.0882636
-3.9021957	الأحيان	-0.0882636
-3.9021957	برغبة	-0.0882636
-3.5566263	إسهال	-0.23455952
-3.6845112	بأي	-0.0882636
-3.9021957	صحة	-0.0882636
-3.9021957	وأبدا	-0.0882636
-3.6845112	أتذكر	-0.2273531
-3.9021957	وأتصور	-0.0882636
-3.9021957	لأنها	-0.0882636
-3.6845112	لأنه	-0.0882636
-3.9021957	مستبعد	-0.0882636
-3.6845112	بسيطة	-0.0882636
-3.9021957	بزكام	-0.0882636
-3.9021957	صغري	-0.0882636
-3.6845112	بصري	-0.0882636
-3.9021957	عدا	-0.0882636
-3.6845112	المرات	-0.0882636
-3.9021957	اصوب	-0.0882636
-3.6845112	بمرض	-0.0882636
-3.9021957	بالزكام	-0.0882636
-3.9021957	الشديد	-0.0882636
-3.9021957	أجد	-0.0882636
-3.9021957	صعوبة	-0.0882636
-3.9021957	لبضعة	-0.0882636
-3.9021957	أظنني	-0.0882636
-3.9021957	انني	-0.0882636
-3.6845112	دائما	-0.0882636
-3.5566263	الحالة	-0.08826357
-3.9021957	أمر	-0.0882636
-3.6845112	تناولت	-0.0882636
-3.9021957	الغداء	-0.0882636
-3.9021957	كاحلي	-0.0882636
-3.6845112	بالتواء	-0.2273531
-3.9021957	بسيط	-0.0882636
-3.9021957	بالعظام	-0.0882636
-3.9021957	انما	-0.0882636
-3.9021957	الايسر	-0.0882636
-3.5566263	بكسر	-0.17587987
-3.9021957	التواء	-0.0882636
-3.6845112	أقول	-0.0882636
-3.6845112	يسمى	-0.08826357
-3.9021957	العصر	-0.0882636
-3.9021957	ونقول	-0.0882636
-3.9021957	السيدا	-0.0882636
-3.9021957	جنسي	-0.0882636
-3.9021957	بالأساس	-0.0882636
-3.9021957	يصيب	-0.0882636
-3.9021957	العدوى	-0.0882636
-3.9021957	وعن	-0.0882636
-3.9021957	أشياء	-0.0882636
-3.9021957	ويفقده	-0.0882636
-3.9021957	مناعته	-0.0882636
-3.9021957	وعادة	-0.0882636
-3.6845112	ينجر	-0.2273531
-3.9021957	الموت	-0.0882636
-3.6845112	قليلة	-0.08826357
-3.6845112	إيدز	-0.0882636
-3.9021957	بالفرنسية	-0.0882636
-3.9021957	سيدا	-0.0882636
-3.9021957	وبالعربية	-0.0882636
-3.9021957	ناتج	-0.0882636
-3.9021957	علاقة	-0.0882636
-3.9021957	مشبوهة	-0.0882636
-3.6845112	مريض	-0.0882636
-3.9021957	وآخر	-0.0882636
-3.9021957	وأعوام	-0.0882636
-3.9021957	وأظن	-0.0882636
-3.6845112	الحمد	-0.2273531
-3.4118533	أنني	-0.0882636
-3.9021957	سأصاب	-0.0882636
-3.9021957	المستقبل	-0.0882636
-3.9021957	اظن	-0.0882636
-3.9021957	شاء	-0.0882636
-3.9021957	وليست	-0.0882636
-3.9021957	صفتي	-0.0882636
-3.9021957	تلقيت	-0.0882636
-3.9021957	عمودي	-0.0882636
-3.6845112	الفقري	-0.2273531
-3.9021957	العمود	-0.0882636
-3.9021957	مستوى	-0.0882636
-3.9021957	ظهري	-0.0882636
-3.9021957	اللحظات	-0.0882636
-3.5566263	بذلك	-0.17587987
-3.9021957	السفلى	-0.0882636
-3.9021957	أسمعك	-0.0882636
-3.9021957	استطيع	-0.0882636
-3.9021957	بصعوبة	-0.0882636
-3.9021957	خشية	-0.0882636
-3.9021957	حروق	-0.0882636
-3.5566263	بي	-0.0882636
-3.9021957	لحظات	-0.0882636
-3.9021957	متقطع	-0.0882636
-3.9021957	نابض	-0.0882636
-3.9021957	منحصر	-0.0882636
-3.6845112	ببعض	-0.0882636
-3.9021957	شعرت	-0.0882636
-3.9021957	يتناول	-0.0882636
-3.5566263	طفلي	-0.17587987
-3.9021957	الطعام	-0.0882636
-3.9021957	أكل	-0.0882636
-3.0826735	ابني	-0.22408411
-3.9021957	الأطعمة	-0.0882636
-3.9021957	تبول	-0.0882636
-3.9021957	يبرز	-0.0882636
-3.9021957	تبرز	-0.0882636
-3.9021957	يصب	-0.0882636
-3.9021957	بالإسهال	-0.0882636
-3.9021957	استفرغ	-0.0882636
-3.9021957	الفاصلة	-0.0882636
-3.9021957	والعشرين	-0.0882636
-3.9021957	والثالث	-0.0882636
-3.6845112	العشرين	-0.0882636
-3.6845112	وابني	-0.0882636
-3.6845112	يستفرغ	-0.2273531
-3.9021957	لإسهال	-0.0882636
-3.9021957	لغتين	-0.0882636
-3.9021957	ممتاز	-0.0882636
-3.6845112	اعيش	-0.2273531
-3.6845112	خدمة	-0.0882636
-3.9021957	تعدين	-0.0882636
-3.9021957	بالمدرسة	-0.0882636
-3.4118533	التحضيرية	-0.15226379
-3.9021957	للأكاديمية	-0.0882636
-3.6845112	إنا	-0.2273531
-3.6845112	عسكري	-0.2273531
-3.9021957	تلميذ	-0.0882636
-3.9021957	جانفي	-0.0882636
-3.9021957	الزهور	-0.0882636
-3.9021957	الخمس	-0.0882636
-3.9021957	إلي	-0.0882636
-3.9021957	بالذهاب	-0.0882636
-3.9021957	بالساعة	-0.0882636
-3.6845112	منتصف	-0.2273531
-3.9021957	النهار	-0.0882636
-3.4118533	مدة	-0.08826357
-3.9021957	مصر	-0.0882636
-3.6845112	القاهرة	-0.0882636
-3.6845112	اصطحب	-0.2273531
-3.6845112	يجب	-0.17587987
-3.9021957	رياضة	-0.0882636
-3.6845112	استغرق	-0.0882636
-3.5566263	اقيم	-0.08826357
-3.9021957	للإقامة	-0.0882636
-3.6845112	اتجاه	-0.08826357
-3.6845112	الشمال	-0.17587987
-3.9021957	يوحد	-0.0882636
-3.9021957	ميلان	-0.0882636
-3.9021957	مت	-0.0882636
-3.9021957	إيطاليا	-0.0882636
-3.6845112	الإيطالية	-0.0882636
-3.9021957	اتعرف	-0.0882636
-3.6845112	الشرطة	-0.0882636
-3.9021957	ينهي	-0.0882636
-3.6845112	الكبير	-0.0882636
-3.6845112	فيهم	-0.0882636
-3.9021957	فاتحا	-0.0882636
-3.9021957	بيض	-0.0882636
-3.9021957	خضر	-0.0882636
-3.9021957	بكثير	-0.0882636
-3.5566263	وتسعون	-0.08826357
-3.9021957	عربية	-0.0882636
-3.9021957	ديانة	-0.0882636
-3.9021957	الشهادة	-0.0882636
-3.9021957	والانجليزية	-0.0882636
-3.9021957	خالق	-0.0882636
-3.9021957	قويل	-0.0882636
-3.9021957	متزوجا	-0.0882636
-3.9021957	وأربعون	-0.0882636
-3.9021957	ميلاده	-0.0882636
-3.3034635	ديسمبر	-0.17002046
-3.9021957	بصيادة	-0.0882636
-3.9021957	بفرنسا	-0.0882636
-3.6845112	رئيس	-0.0882636
-3.9021957	بباريس	-0.0882636
-3.9021957	بنيس	-0.0882636
-3.9021957	غليظة	-0.0882636
-3.9021957	جبينه	-0.0882636
-3.6845112	الأيسر	-0.0882636
-3.9021957	يمتلكها	-0.0882636
-3.9021957	فورد	-0.0882636
-3.6845112	أسبوعين	-0.0882636
-3.9021957	البيت	-0.0882636
-3.9021957	اعرفه	-0.0882636
-3.9021957	ولك	-0.0882636
-3.5566263	يمكنك	-0.17587987
-3.6845112	أستخدمه	-0.0882636
-3.6845112	اصفر	-0.2273531
-3.9021957	الساعاتي	-0.0882636
-3.6845112	أمس	-0.0882636
-3.9021957	أسرق	-0.0882636
-3.6845112	لنوع	-0.2273531
-3.6845112	البنسلين	-0.2273531
-3.9021957	يسبب	-0.0882636
-3.9021957	أسبرين	-0.0882636
-3.9021957	كالماتيوكس	-0.0882636
-3.6845112	صحتي	-0.0882636
-3.9021957	اتعاطى	-0.0882636
-3.9021957	ادوية	-0.0882636
-3.5566263	الأسبرين	-0.23455952
-3.9021957	الأسبجيك	-0.0882636
-3.9021957	زائدة	-0.0882636
-3.9021957	الكبد	-0.0882636
-3.9021957	فاضطررت	-0.0882636
-3.9021957	بعائلتي	-0.0882636
-3.9021957	حاولت	-0.0882636
-3.5566263	أتوقف	-0.23455952
-3.9021957	لكني	-0.0882636
-3.9021957	أنجح	-0.0882636
-3.5566263	شهرين	-0.17587987
-3.6845112	وسط	-0.0882636
-3.6845112	إسلامية	-0.2273531
-3.9021957	نشعر	-0.0882636
-3.9021957	متفاوتة	-0.0882636
-3.9021957	زلت	-0.08826357
-3.9021957	تلميذا	-0.0882636
-3.9021957	اتحصل	-0.0882636
-3.9021957	منصب	-0.0882636
-3.9021957	والدتي	-0.0882636
-3.9021957	إخوة	-0.0882636
-3.6845112	عشرين	-0.2273531
-3.9021957	ثلاثون	-0.0882636
-3.6845112	جويلية	-0.2273531
-3.6845112	وثلاثة	-0.0882636
-3.9021957	وبالتحديد	-0.0882636
-3.6845112	آلام	-0.17587987
-3.9021957	مشكله	-0.0882636
-3.9021957	بالالتهاب	-0.0882636
-3.9021957	بالحموضة	-0.0882636
-3.9021957	المشاكل	-0.08826357
-3.6845112	بالشلل	-0.2273531
-3.9021957	ابصاري	-0.0882636
-3.9021957	احيانا	-0.0882636
-3.9021957	ادوخه	-0.0882636
-3.9021957	اذكر	-0.0882636
-3.6845112	سابقا	-0.0882636
-3.9021957	فظيع	-0.0882636
-3.9021957	معدتي	-0.0882636
-3.6845112	الرأس	-0.0882636
-3.9021957	البطن	-0.0882636
-3.9021957	بخنجر	-0.0882636
-3.9021957	شاحنة	-0.0882636
-3.9021957	بالوجه	-0.0882636
-3.9021957	لبضع	-0.0882636
-3.9021957	بالذات	-0.0882636
-3.9021957	اليدي	-0.0882636
-3.6845112	بتمزق	-0.0882636
-3.9021957	تحريكها	-0.0882636
-3.6845112	بسهولة	-0.2273531
-3.9021957	بمفردك	-0.0882636
-3.9021957	اتكلم	-0.0882636
-3.9021957	بطريقة	-0.0882636
-3.4118533	معك	-0.12986597
-3.6845112	الحقوق	-0.2273531
-3.9021957	مدنيا	-0.0882636
-3.9021957	طبيبة	-0.0882636
-3.9021957	عمرك	-0.0882636
-3.9021957	ميلادك	-0.0882636
-3.9021957	والعشرون	-0.0882636
-3.9021957	اكتوبر	-0.0882636
-3.9021957	المنستير	-0.0882636
-3.9021957	التاسعة	-0.0882636
-3.9021957	والربع	-0.0882636
-3.9021957	آكل	-0.0882636
-3.9021957	شقيقتي	-0.0882636
-3.6845112	شخصيتي	-0.2273531
-3.9021957	معهم	-0.0882636
-3.9021957	نحن	-0.0882636
-3.9021957	نبعد	-0.0882636
-3.9021957	ميل	-0.0882636
-3.4118533	صديقي	-0.1931134
-3.9021957	للسفر	-0.0882636
-3.9021957	مترجلا	-0.0882636
-3.9021957	الغربي	-0.0882636
-3.9021957	بالقرب	-0.0882636
-3.9021957	البرازيل	-0.0882636
-3.6845112	الخاصة	-0.2273531
-3.6845112	الأولياء	-0.0882636
-3.9021957	يصطحبون	-0.0882636
-3.6845112	جميع	-0.0882636
-3.6845112	كانوا	-0.08826357
-3.6845112	وذقن	-0.0882636
-3.9021957	قامتك	-0.0882636
-3.9021957	فرنسية	-0.0882636
-3.4118533	إنها	-0.0882636
-3.6845112	مسيحية	-0.2273531
-3.9021957	لديك	-0.0882636
-3.9021957	موعدك	-0.0882636
-3.9021957	تقصده	-0.0882636
-3.6845112	المتوجه	-0.15226379
-3.9021957	إليها	-0.0882636
-3.5566263	فرد	-0.23455952
-3.9021957	عائلتك	-0.0882636
-3.9021957	تصطحبه	-0.0882636
-3.9021957	تحمل	-0.0882636
-3.9021957	تصطحبهم	-0.0882636
-3.9021957	تحتاج	-0.0882636
-3.9021957	سيارتك	-0.0882636
-3.9021957	ميلا	-0.0882636
-3.9021957	تستغرق	-0.0882636
-3.9021957	تتوقع	-0.0882636
-3.9021957	تقيمها	-0.0882636
-3.5566263	عمتي	-0.17587987
-3.9021957	عائلة	-0.0882636
-3.9021957	وزوجها	-0.0882636
-3.9021957	وأبناؤها	-0.0882636
-3.9021957	أقود	-0.0882636
-3.9021957	المدخل	-0.0882636
-3.9021957	رادس	-0.0882636
-3.9021957	خطيرة	-0.0882636
-3.9021957	أدت	-0.0882636
-3.9021957	طفلا	-0.0882636
-3.6845112	صغيرا	-0.0882636
-3.9021957	يسوق	-0.0882636
-3.9021957	متهورة	-0.0882636
-3.9021957	حادثا	-0.0882636
-3.9021957	مرعبا	-0.0882636
-3.9021957	قريبا	-0.0882636
-3.6845112	لكن	-0.0882636
-3.9021957	التدخل	-0.0882636
-3.9021957	عون	-0.0882636
-3.9021957	يهتم	-0.0882636
-3.9021957	بهذه	-0.0882636
-3.9021957	الحوادث	-0.0882636
-3.9021957	أقل	-0.0882636
-3.9021957	لونهما	-0.0882636
-3.9021957	زرقاء	-0.0882636
-3.9021957	يزيدني	-0.0882636
-3.9021957	بعشرين	-0.0882636
-3.9021957	اثنتي	-0.0882636
-3.6845112	والألمانية	-0.0882636
-3.9021957	الأولاد	-0.0882636
-3.9021957	البنات	-0.0882636
-3.6845112	وستين	-0.2273531
-3.9021957	العاصمة	-0.0882636
-3.9021957	جسدا	-0.0882636
-3.9021957	رياضيا	-0.0882636
-3.9021957	ممتلئا	-0.0882636
-3.9021957	نوعا	-0.0882636
-3.6845112	خدش	-0.08826357
-3.9021957	معروفة	-0.0882636
-3.9021957	شعبية	-0.0882636
-3.9021957	أعضاء	-0.0882636
-3.9021957	دولبران	-0.0882636
-3.6845112	أدى	-0.0882636
-3.9021957	تسعة	-0.0882636
-3.9021957	فاصل	-0.0882636
-3.9021957	أجرب	-0.0882636
-3.9021957	خمور	-0.0882636
-3.9021957	متخدرات	-0.0882636
-3.9021957	واختناق	-0.0882636
-3.9021957	أدوخة	-0.0882636
-3.9021957	الحالات	-0.0882636
-3.9021957	القصور	-0.0882636
-3.9021957	الحالي	-0.08826357
-3.4118533	بالكحة	-0.15226379
-3.6845112	الالتهاب	-0.2273531
-3.6845112	بالدوخة	-0.0882636
-3.9021957	بطني	-0.0882636
-3.9021957	كبدي	-0.0882636
-3.6845112	محمد	-0.0882636
-3.9021957	استنشقت	-0.0882636
-3.9021957	باردا	-0.0882636
-3.9021957	الرؤية	-0.0882636
-3.9021957	أتمكن	-0.0882636
-3.9021957	السماع	-0.0882636
-3.9021957	أتألم	-0.0882636
-3.6845112	مازال	-0.0882636
-3.9021957	مستمر	-0.0882636
-3.6845112	يؤلمني	-0.0882636
-3.6845112	مناطق	-0.08826357
-3.9021957	فظهري	-0.0882636
-3.9021957	وظهري	-0.0882636
-3.9021957	وذراعي	-0.0882636
-3.9021957	المرة	-0.0882636
-3.6845112	الأولى	-0.0882636
-3.9021957	تناول	-0.0882636
-3.9021957	الخبز	-0.0882636
-3.9021957	وشرب	-0.0882636
-3.9021957	الحليب	-0.0882636
-3.9021957	يتبول	-0.0882636
-3.9021957	يتبرز	-0.0882636
-3.9021957	الامس	-0.0882636
-3.9021957	ليلة	-0.0882636
-3.9021957	وإخوتي	-0.0882636
-3.9021957	أعمل	-0.0882636
-3.9021957	أستاذا	-0.0882636
-3.9021957	بمعهد	-0.0882636
-3.9021957	ثانوي	-0.0882636
-3.9021957	باردو	-0.0882636
-3.9021957	الخميس	-0.0882636
-3.9021957	القادم	-0.0882636
-3.9021957	الزوال	-0.0882636
-3.9021957	قصرين	-0.0882636
-3.9021957	بالعائلة	-0.0882636
-3.9021957	مرافق	-0.0882636
-3.9021957	وحدي	-0.0882636
-3.9021957	مسافرا	-0.0882636
-3.9021957	الباكر	-0.0882636
-3.9021957	المتورطة	-0.0882636
-3.9021957	مرت	-0.0882636
-3.9021957	يصاحبون	-0.0882636
-3.9021957	أطفالهم	-0.0882636
-3.9021957	قامت	-0.0882636
-3.9021957	إسعاف	-0.0882636
-3.9021957	بنقل	-0.0882636
-3.6845112	مصطحبين	-0.2273531
-3.9021957	بأوليائهم	-0.0882636
-3.9021957	أظنه	-0.0882636
-3.9021957	صفراء	-0.0882636
-3.9021957	عينان	-0.0882636
-3.9021957	كستانيتان	-0.0882636
-3.9021957	يبلغ	-0.0882636
-3.9021957	المتر	-0.0882636
-3.9021957	والثمانين	-0.0882636
-3.9021957	مقتبل	-0.0882636
-3.9021957	صلب	-0.0882636
-3.9021957	هاتف	-0.0882636
-3.9021957	فرنسي	-0.0882636
-3.9021957	الكيمياء	-0.0882636
-3.6845112	الوطنية	-0.2273531
-3.5566263	عديد	-0.08826357
-3.9021957	والإيطالية	-0.0882636
-3.9021957	والصينية	-0.0882636
-3.9021957	والروسية	-0.0882636
-3.9021957	يتقنها	-0.0882636
-3.6845112	بنتان	-0.0882636
-3.6845112	مارس	-0.0882636
-3.9021957	نيس	-0.0882636
-3.9021957	اسبانيا	-0.0882636
-3.9021957	مدريد	-0.0882636
-3.6845112	عادية	-0.2273531
-3.9021957	الجانب	-0.0882636
-3.9021957	خده	-0.0882636
-3.9021957	حفلة	-0.0882636
-3.9021957	فندق	-0.0882636
-3.9021957	اهلا	-0.0882636
-3.9021957	تاجر	-0.0882636
-3.9021957	متجول	-0.0882636
-3.9021957	اعلم	-0.0882636
-3.5566263	الوحيد	-0.08826357
-3.3034635	خاصة	-0.13868694
-3.5566263	المعدة	-0.17587987
-3.9021957	فيتامين	-0.0882636
-3.9021957	سي	-0.0882636
-3.9021957	مناسبة	-0.0882636
-3.9021957	الوحيدة	-0.0882636
-3.9021957	جراحية	-0.0882636
-3.9021957	و	-0.0882636
-3.6845112	المناسبات	-0.0882636
-3.9021957	وتسعا	-0.0882636
-3.9021957	يوميا	-0.0882636
-3.9021957	الثامنة	-0.0882636
-3.9021957	أقلعت	-0.0882636
-3.9021957	صدري	-0.0882636
-3.9021957	الفين	-0.0882636
-3.9021957	خمرية	-0.0882636
-3.9021957	وقليلا	-0.0882636
-3.9021957	السياسي	-0.0882636
-3.9021957	مساعدا	-0.0882636
-3.9021957	البلدية	-0.0882636
-3.9021957	ماي	-0.0882636
-3.9021957	حمام	-0.0882636
-3.9021957	المتخدرات	-0.0882636
-3.9021957	اشكو	-0.0882636
-3.5566263	وخاصة	-0.17587987
-3.9021957	قيامي	-0.0882636
-3.9021957	بممارسة	-0.0882636
-3.9021957	الرياضة	-0.0882636
-3.9021957	بنشاط	-0.0882636
-3.9021957	متعب	-0.0882636
-3.9021957	سليم	-0.0882636
-3.9021957	ابتلالي	-0.0882636
-3.9021957	بالمطر	-0.0882636
-3.9021957	تؤلمني	-0.0882636
-3.9021957	أذني	-0.0882636
-3.9021957	الإبتلاع	-0.0882636
-3.6845112	مجروحا	-0.2273531
-3.9021957	بالايدز	-0.0882636
-3.9021957	محتاجا	-0.0882636
-3.9021957	بكل	-0.0882636
-3.9021957	الراحة	-0.0882636
-3.9021957	الغد	-0.0882636
-3.9021957	انتظر	-0.0882636
-3.9021957	متجه	-0.0882636
-3.9021957	سواحل	-0.0882636
-3.6845112	الجمهورية	-0.0882636
-3.9021957	زوجتي	-0.0882636
-3.9021957	الاوراق	-0.0882636
-3.9021957	تثبت	-0.0882636
-3.9021957	إثبات	-0.0882636
-3.9021957	شخصياتهم	-0.0882636
-3.9021957	المتوقع	-0.0882636
-3.9021957	الثانية	-0.08826357
-3.9021957	الأوراق	-0.0882636
-3.9021957	الرسمية	-0.0882636
-3.9021957	التقريب	-0.0882636
-3.9021957	بالطائرة	-0.0882636
-3.9021957	فيينا	-0.0882636
-3.9021957	اسمه	-0.0882636
-3.9021957	أنهم	-0.0882636
-3.9021957	الظهر	-0.0882636
-3.9021957	بضع	-0.0882636
-3.9021957	احدا	-0.0882636
-3.9021957	منهم	-0.0882636
-3.9021957	الناحية	-0.0882636
-3.6845112	بشرته	-0.2273531
-3.9021957	سود	-0.0882636
-3.9021957	متران	-0.0882636
-3.9021957	إجازة	-0.0882636
-3.9021957	القانون	-0.0882636
-3.9021957	بدرجة	-0.0882636
-3.9021957	وستة	-0.0882636
-3.9021957	زارني	-0.0882636
-3.9021957	المساء	-0.0882636
-3.9021957	معرفة	-0.0882636
-3.9021957	جزيلا	-0.0882636
-3.9021957	يعرفون	-0.0882636
-3.9021957	آسف	-0.0882636
-3.9021957	شريته	-0.0882636
-3.9021957	فالسرقة	-0.0882636
-3.6845112	أحمر	-0.0882636
-3.9021957	الأسبوعية	-0.0882636
-3.9021957	بالبلدة	-0.0882636
-3.6845112	عفوا	-0.0882636
-3.9021957	اخر	-0.0882636
-3.9021957	الصحية	-0.0882636
-3.9021957	ومرض	-0.0882636
-3.6845112	الأعصاب	-0.2273531
-3.9021957	ودواء	-0.0882636
-3.9021957	الفارطة	-0.0882636
-3.9021957	غراما	-0.0882636
-3.6845112	سنتيمترا	-0.2273531
-3.9021957	عامين	-0.0882636
-3.9021957	تتعاطى	-0.0882636
-3.9021957	وتصيبني	-0.0882636
-3.9021957	يحصل	-0.0882636
-3.9021957	صداع	-0.0882636
-3.9021957	اقرأ	-0.0882636
-3.9021957	الصبر	-0.0882636
-3.9021957	اذني	-0.0882636
-3.9021957	والممرضة	-0.0882636
-3.9021957	تقوم	-0.0882636
-3.9021957	بجمع	-0.0882636
-3.9021957	المعلومات	-0.0882636
-3.9021957	عني	-0.0882636
-3.9021957	فتسألني	-0.0882636
-3.9021957	الأسئلة	-0.0882636
-3.9021957	التالية	-0.0882636
-3.9021957	انف	-0.0882636
-3.9021957	تعاني	-0.0882636
-3.9021957	أسنانك	-0.0882636
-3.9021957	الملفاوية	-0.0882636
-3.9021957	والالتهاب	-0.0882636
-3.9021957	ألدين	-0.0882636
-3.9021957	فوق	-0.0882636
-3.9021957	المتوسطة	-0.0882636
-3.9021957	ختم	-0.08826357
-3.9021957	تحضيريتين	-0.0882636
-3.9021957	أشغل	-0.0882636
-3.9021957	وظيفة	-0.0882636
-3.9021957	أستاذ	-0.0882636
-3.9021957	رياضيات	-0.0882636
-3.9021957	جون	-0.0882636
-3.9021957	افهمك	-0.0882636
-3.9021957	محتاجة	-0.0882636
-3.9021957	المتوجهة	-0.0882636
-3.9021957	المتجهة	-0.0882636
-3.9021957	فردين	-0.0882636
-3.9021957	اتوقع	-0.0882636
-3.9021957	اسبوعا	-0.0882636
-3.9021957	سأقوم	-0.0882636
-3.5566263	اخي	-0.08826357
-3.9021957	مسافر	-0.0882636
-3.9021957	ركبت	-0.0882636
-3.9021957	اليمين	-0.0882636
-3.9021957	حدوث	-0.0882636
-3.9021957	العينين	-0.0882636
-3.9021957	اسود	-0.0882636
-3.9021957	الشعر	-0.0882636
-3.9021957	جسديا	-0.0882636
-3.9021957	اخذك	-0.0882636
-3.9021957	منزلنا	-0.0882636
-3.5566263	صفاقس	-0.23455952
-3.9021957	مرحبا	-0.0882636
-3.9021957	اشتريتها	-0.0882636
-3.9021957	لونها	-0.0882636
-3.9021957	للهدايا	-0.0882636
-3.9021957	شرائه	-0.0882636
-3.9021957	للطبيب	-0.0882636
-3.9021957	جدتي	-0.0882636
-3.9021957	امثال	-0.0882636
-3.9021957	ليفيرالكون	-0.0882636
-3.9021957	أضع	-0.0882636
-3.9021957	كلاموكسيل	-0.0882636
-3.9021957	الزائدة	-0.0882636
-3.9021957	دخلت	-0.0882636
-3.9021957	سنتمتر	-0.0882636
-3.9021957	سيجارة	-0.0882636
-3.9021957	سيجارتين	-0.0882636
-3.9021957	العلم	-0.0882636
-3.9021957	سن	-0.0882636
-3.9021957	أبطل	-0.0882636
-3.9021957	استعمال	-0.0882636
-3.9021957	لحظة	-0.0882636
-3.9021957	اتبول	-0.0882636
-3.9021957	اصيب	-0.0882636
-3.9021957	بالالتهابات	-0.0882636
-3.9021957	الرئوية	-0.0882636
-3.9021957	الحادة	-0.0882636
-3.9021957	سبقت	-0.0882636
-3.9021957	بالكسور	-0.0882636
-3.9021957	عظام	-0.0882636
-3.9021957	للإصابة	-0.0882636
-3.9021957	يتسبب	-0.0882636
-3.9021957	ساك	-0.0882636
-3.9021957	واثنتي	-0.0882636
-3.9021957	المهدية	-0.0882636
-3.9021957	عازبا	-0.0882636
-3.9021957	بأمان	-0.0882636
-3.9021957	باللغة	-0.0882636
-3.9021957	أدرس	-0.0882636
-3.6845112	المرحلة	-0.0882636
-3.9021957	بالمدارس	-0.0882636
-3.9021957	التجمع	-0.0882636
-3.9021957	اواصل	-0.0882636
-3.9021957	الدراسة	-0.0882636
-3.9021957	اصحبهم	-0.0882636
-3.9021957	أمتار	-0.0882636
-3.9021957	طريقي	-0.0882636
-3.9021957	المدرسة	-0.0882636
-3.9021957	مصطحبينهم	-0.0882636
-3.9021957	أصطحبهم	-0.0882636
-3.9021957	يصدمهم	-0.0882636
-3.9021957	وذلك	-0.0882636
-3.9021957	ليخفي	-0.0882636
-3.9021957	للموضوع	-0.0882636
-3.9021957	جرى	-0.0882636
-3.9021957	لأني	-0.0882636
-3.9021957	لاحظت	-0.0882636
-3.9021957	بأحد	-0.0882636
-3.9021957	المسرح	-0.0882636
-3.9021957	لاحد	-0.0882636
-3.9021957	الفنانين	-0.0882636
-3.9021957	المشهورين	-0.0882636
-3.9021957	القمح	-0.0882636
-3.9021957	ناصعة	-0.0882636
-3.9021957	كث	-0.0882636
-3.9021957	وغزير	-0.0882636
-3.9021957	صغير	-0.0882636
-3.9021957	كستنائي	-0.0882636
-3.9021957	وأربعين	-0.0882636
-3.9021957	باكستاني	-0.0882636
-3.9021957	طيبة	-0.0882636
-3.9021957	المجاور	-0.0882636
-3.9021957	حال	-0.0882636
-3.9021957	المغازل	-0.0882636
-3.6845112	المجاورة	-0.2273531
-3.9021957	سأحاول	-0.0882636
-3.9021957	فكرة	-0.0882636
-3.9021957	ضئيلة	-0.0882636
-3.6845112	عنها	-0.2273531
-3.9021957	مالي	-0.0882636
-3.9021957	جارنا	-0.0882636
-3.9021957	زرته	-0.0882636
-3.9021957	القرحة	-0.0882636
-3.9021957	فعلي	-0.0882636
-3.9021957	تجاهه	-0.0882636
-3.9021957	وذكرت	-0.0882636
-3.9021957	يؤدي	-0.0882636
-3.9021957	أزن	-0.0882636
-3.6845112	لكي	-0.0882636
-3.9021957	لذلك	-0.0882636
-3.9021957	والتهاب	-0.0882636
-3.9021957	وبرغبة	-0.0882636
-3.9021957	بمصاب	-0.0882636
-3.9021957	وجيزة	-0.0882636
-3.9021957	ودخانا	-0.0882636
-3.9021957	مسلمة	-0.0882636
-3.9021957	يختلف	-0.0882636
-3.9021957	حسب	-0.0882636
-3.9021957	الدروس	-0.0882636
-3.9021957	مادة	-0.0882636
-3.9021957	ضابط	-0.0882636
-3.9021957	بحاجة	-0.0882636
-3.9021957	للذهاب	-0.0882636
-3.9021957	لدورة	-0.0882636
-3.9021957	لبنان	-0.0882636
-3.9021957	صور	-0.0882636
-3.9021957	أصل	-0.0882636
-3.9021957	بسيارتي	-0.0882636
-3.9021957	بالحمامات	-0.0882636
-3.9021957	ولاية	-0.0882636
-3.9021957	الواحدة	-0.0882636
-3.9021957	الحظ	-0.0882636
-3.9021957	مريع	-0.0882636
-3.9021957	سيدتي	-0.0882636
-3.9021957	الرئيسة	-0.0882636
-3.9021957	تحية	-0.0882636
-3.9021957	لسيادة	-0.0882636
-3.5566263	الوزير	-0.0882636
-3.9021957	ولمساعديه	-0.0882636
-3.9021957	وأرجو	-0.0882636
-3.5566263	سيدي	-0.17587987
-3.9021957	يتسع	-0.0882636
-3.9021957	صدركم	-0.0882636
-3.9021957	سأقول	-0.0882636
-3.5566263	دون	-0.08826357
-3.9021957	مقدمات	-0.0882636
-3.4118533	لكم	-0.0882636
-3.9021957	الوزارة	-0.0882636
-3.9021957	اصبحت	-0.0882636
-3.9021957	عبئا	-0.0882636
-3.9021957	المجموعة	-0.0882636
-3.9021957	وأعتقد	-0.0882636
-3.9021957	الميزانية	-0.0882636
-3.9021957	حري	-0.0882636
-3.9021957	تذهب	-0.0882636
-3.9021957	البحث	-0.0882636
-3.9021957	العلمي	-0.0882636
-3.9021957	استصلاح	-0.0882636
-3.9021957	المناطق	-0.0882636
-3.9021957	القاحلة	-0.0882636
-3.9021957	تنمية	-0.0882636
-3.9021957	مهارات	-0.0882636
-3.9021957	والطفولة	-0.0882636
-3.9021957	بصراحة	-0.0882636
-3.9021957	السيد	-0.0882636
-3.6845112	وزير	-0.0882636
-3.3034635	الخارجية	-0.0882636
-3.4118533	السعودي	-0.0882636
-3.9021957	اصبح	-0.0882636
-3.9021957	المحدد	-0.0882636
-3.9021957	للسياسة	-0.0882636
-3.9021957	لبلادنا	-0.0882636
-3.9021957	وسيادتكم	-0.0882636
-3.9021957	اما	-0.0882636
-3.9021957	تبارك	-0.0882636
-3.9021957	تتوارى	-0.0882636
-3.9021957	خلفه	-0.0882636
-3.6845112	وهذا	-0.0882636
-3.9021957	مؤسف	-0.0882636
-3.9021957	وتونس	-0.0882636
-3.9021957	تستحق	-0.0882636
-3.9021957	منكم	-0.0882636
-3.9021957	عهدكم	-0.0882636
-3.9021957	السعيد	-0.0882636
-3.5566263	تم	-0.17587987
-3.9021957	الاعتداء	-0.0882636
-3.9021957	قرارنا	-0.0882636
-3.9021957	السيادي	-0.0882636
-3.9021957	بالزج	-0.0882636
-3.5566263	بنا	-0.08826357
-3.6845112	الحلف	-0.08826357
-3.5566263	الاسرائيلي	-0.08826357
-3.6845112	نعلم	-0.0882636
-3.9021957	مثلما	-0.0882636
-3.9021957	زج	-0.0882636
-3.9021957	سابقوكم	-0.0882636
-3.9021957	سابق	-0.0882636
-3.9021957	القطري	-0.0882636
-3.9021957	التركي	-0.0882636
-3.9021957	وسيادتك	-0.0882636
-3.9021957	تستطيع	-0.0882636
-3.9021957	تنفي	-0.0882636
-3.9021957	تؤكد	-0.0882636
-3.9021957	انخراطنا	-0.0882636
-3.9021957	سأحدثك	-0.0882636
-3.9021957	لاحقا	-0.0882636
-3.9021957	يبدو	-0.0882636
-3.9021957	خارجيتنا	-0.0882636
-3.9021957	تعلم	-0.0882636
-3.9021957	التعدي	-0.0882636
-3.9021957	الوطني	-0.0882636
-3.9021957	بتصنيف	-0.0882636
-3.9021957	تنظيما	-0.0882636
-3.9021957	ارهابيا	-0.0882636
-3.9021957	الداخلية	-0.0882636
-3.9021957	ارضنا	-0.0882636
-3.9021957	وطننا	-0.0882636
-3.9021957	ووزارة	-0.0882636
-3.9021957	متاعنا	-0.0882636
-3.9021957	تومئ	-0.0882636
-3.9021957	برأسها	-0.0882636
-3.9021957	اعتدى	-0.0882636
-3.9021957	الموساد	-0.0882636
-3.9021957	بلادنا	-0.0882636
-3.9021957	واغتال	-0.0882636
-3.9021957	مواطنا	-0.0882636
-3.9021957	تونسيا	-0.0882636
-3.9021957	رميا	-0.0882636
-3.9021957	بالرصاص	-0.0882636
-3.9021957	امام	-0.0882636
-3.9021957	منزله	-0.0882636
-3.9021957	الشهيد	-0.0882636
-3.9021957	زويري	-0.0882636
-3.9021957	نسمع	-0.0882636
-3.9021957	صوتا	-0.0882636
-3.9021957	لرئيس	-0.0882636
-3.9021957	صدعتم	-0.0882636
-3.9021957	اذاننا	-0.0882636
-3.9021957	ورؤوسنا	-0.0882636
-3.9021957	بأنكم	-0.0882636
-3.9021957	تلاميذ	-0.0882636
-3.9021957	الرئيس	-0.0882636
-3.9021957	الراحل	-0.0882636
-3.9021957	الحبيب	-0.0882636
-3.6845112	بورقيبة	-0.0882636
-3.9021957	مقر	-0.0882636
-3.9021957	منظمة	-0.0882636
-3.9021957	التحرير	-0.0882636
-3.9021957	الفلسطينية	-0.0882636
-3.9021957	بحمام	-0.0882636
-3.9021957	الشط	-0.0882636
-3.9021957	هدد	-0.0882636
-3.9021957	امريكا	-0.0882636
-3.9021957	بقطع	-0.0882636
-3.5566263	العلاقات	-0.17587987
-3.9021957	معها	-0.0882636
-3.9021957	استعملت	-0.0882636
-3.9021957	الفيتو	-0.0882636
-3.9021957	قرار	-0.0882636
-3.9021957	يدين	-0.0882636
-3.6845112	اسرائيل	-0.0882636
-3.5566263	انتم	-0.08826357
-3.9021957	موقف	-0.0882636
-3.9021957	ويمكن	-0.0882636
-3.9021957	اعتبار	-0.0882636
-3.9021957	مشاركتكم	-0.0882636
-3.9021957	فضيحة	-0.0882636
-3.9021957	سمي	-0.0882636
-3.9021957	باجتماع	-0.0882636
-3.9021957	وزراء	-0.0882636
-3.6845112	العرب	-0.0882636
-3.9021957	اقصى	-0.0882636
-3.9021957	درجات	-0.0882636
-3.9021957	المهزلة	-0.0882636
-3.9021957	اجتمعتم	-0.0882636
-3.9021957	لإدانة	-0.0882636
-3.9021957	صاروخ	-0.0882636
-3.9021957	يمني	-0.0882636
-3.9021957	سقط	-0.0882636
-3.9021957	الصحراء	-0.0882636
-3.9021957	المقابل	-0.0882636
-3.9021957	سكتم	-0.0882636
-3.9021957	قتل	-0.0882636
-3.9021957	وتشريد	-0.0882636
-3.6845112	شعب	-0.0882636
-3.9021957	بأكمله	-0.0882636
-3.9021957	تستحوا	-0.0882636
-3.9021957	أشلاء	-0.0882636
-3.9021957	اطفال	-0.0882636
-3.9021957	وانتم	-0.0882636
-3.9021957	تتضامنون	-0.0882636
-3.9021957	الدولة	-0.0882636
-3.9021957	المعتدية	-0.0882636
-3.9021957	وجامعتكم	-0.0882636
-3.9021957	سارعتم	-0.0882636
-3.6845112	تجريم	-0.0882636
-3.9021957	المقاوم	-0.0882636
-3.9021957	البندقية	-0.0882636
-3.6845112	الكيان	-0.2273531
-3.9021957	الصهيوني	-0.0882636
-3.9021957	تنبس	-0.0882636
-3.9021957	ببنت	-0.0882636
-3.9021957	شفاه	-0.0882636
-3.9021957	بالتنظيمات	-0.0882636
-3.9021957	الإرهابية	-0.0882636
-3.9021957	اوغلت	-0.0882636
-3.9021957	دماء	-0.0882636
-3.9021957	والمسلمين	-0.0882636
-3.9021957	شاكلة	-0.0882636
-3.9021957	طالبان	-0.0882636
-3.9021957	وداعش	-0.0882636
-3.9021957	وجبهة	-0.0882636
-3.9021957	النصرة	-0.0882636
-3.9021957	وجند	-0.0882636
-3.9021957	والجيش	-0.0882636
-3.9021957	وغيرها	-0.0882636
-3.9021957	زد	-0.0882636
-3.9021957	فشلكم	-0.0882636
-3.9021957	الأزمة	-0.0882636
-3.9021957	الليبية	-0.0882636
-3.9021957	وعجزكم	-0.0882636
-3.6845112	اعادة	-0.0882636
-3.5566263	سوريا	-0.15226379
-3.9021957	حيث	-0.0882636
-3.9021957	يمنعكم	-0.0882636
-3.6845112	النظام	-0.2273531
-3.9021957	وامريكا	-0.0882636
-3.9021957	واسرائيل	-0.0882636
-3.9021957	تتخذوا	-0.0882636
-3.9021957	الموقف	-0.0882636
-3.5566263	سيادة	-0.23455952
-3.9021957	كذبا	-0.0882636
-3.9021957	بالحلف	-0.0882636
-3.9021957	الاسلامي	-0.0882636
-3.6845112	حلف	-0.0882636
-3.9021957	بغداد	-0.0882636
-3.6845112	الجديد	-0.0882636
-3.9021957	وامينه	-0.0882636
-3.9021957	بنيامين	-0.0882636
-3.9021957	نتانياهو	-0.0882636
-3.9021957	وقائد	-0.0882636
-3.9021957	جيشه	-0.0882636
-3.9021957	ازنكوت	-0.0882636
-3.9021957	قائد	-0.0882636
-3.9021957	بجيش	-0.0882636
-3.9021957	الدفاع	-0.0882636
-3.6845112	والشعب	-0.0882636
-3.9021957	التونسي	-0.0882636
-3.9021957	دفع	-0.0882636
-3.9021957	الشهداء	-0.0882636
-3.9021957	المعارك	-0.0882636
-3.9021957	تحالف	-0.0882636
-3.9021957	صهيوني	-0.0882636
-3.9021957	امريكي	-0.0882636
-3.9021957	رجعي	-0.0882636
-3.9021957	علاوة	-0.0882636
-3.9021957	للمهزومين	-0.0882636
-3.9021957	يراهن	-0.0882636
-3.9021957	مصيره	-0.0882636
-3.9021957	السقوط	-0.0882636
-3.9021957	والهزيمة	-0.0882636
-3.9021957	رفع	-0.0882636
-3.9021957	شعارات	-0.0882636
-3.6845112	يريد	-0.0882636
-3.9021957	تحرير	-0.0882636
-3.9021957	فلسطين	-0.0882636
-3.9021957	التطبيع	-0.0882636
-3.9021957	تسيء	-0.0882636
-3.9021957	اليه	-0.0882636
-3.9021957	وزارة	-0.0882636
-3.9021957	بخصوص	-0.0882636
-3.9021957	تصنيف	-0.0882636
-3.9021957	ارهابي	-0.0882636
-3.9021957	فإننا	-0.0882636
-3.9021957	يقين	-0.0882636
-3.9021957	التصنيف	-0.0882636
-3.9021957	مبيتا	-0.0882636
-3.9021957	واجتماع	-0.0882636
-3.6845112	اذل	-0.0882636
-3.9021957	اجل	-0.0882636
-3.9021957	يخدم	-0.0882636
-3.9021957	الا	-0.0882636
-3.9021957	مصالح	-0.0882636
-3.9021957	المتضرر	-0.0882636
-3.9021957	تنامي	-0.0882636
